digraph Tree {
node [shape=box, style="filled, rounded", color="black", fontname="helvetica"] ;
edge [fontname="helvetica"] ;
0 [label="ExterQual <= 3.5\nsquared_error = 5209784938.442\nsamples = 745\nvalue = 178954.681", fillcolor="#fae5d7"] ;
1 [label="GrLivArea <= 1378.5\nsquared_error = 1748295307.585\nsamples = 470\nvalue = 145303.283", fillcolor="#fbebe0"] ;
0 -> 1 [labeldistance=2.5, labelangle=45, headlabel="True"] ;
2 [label="TotalBsmtSF <= 999.5\nsquared_error = 711010523.425\nsamples = 271\nvalue = 126186.149", fillcolor="#fcefe6"] ;
1 -> 2 ;
3 [label="BsmtFinType1 <= 4.5\nsquared_error = 500830184.177\nsamples = 167\nvalue = 112437.812", fillcolor="#fcf1e9"] ;
2 -> 3 ;
4 [label="CentralAir <= 0.5\nsquared_error = 407601318.685\nsamples = 114\nvalue = 105377.295", fillcolor="#fcf2eb"] ;
3 -> 4 ;
5 [label="GrLivArea <= 742.0\nsquared_error = 506767034.306\nsamples = 30\nvalue = 88547.02", fillcolor="#fdf5f0"] ;
4 -> 5 ;
6 [label="Id <= 928.0\nsquared_error = 216064000.0\nsamples = 3\nvalue = 43300.0", fillcolor="#fffefd"] ;
5 -> 6 ;
7 [label="GrLivArea <= 527.0\nsquared_error = 3630000.0\nsamples = 2\nvalue = 36000.0", fillcolor="#ffffff"] ;
6 -> 7 ;
8 [label="squared_error = 0.0\nsamples = 1\nvalue = 39300.0", fillcolor="#fffefe"] ;
7 -> 8 ;
9 [label="squared_error = 0.0\nsamples = 1\nvalue = 34900.0", fillcolor="#ffffff"] ;
7 -> 9 ;
10 [label="squared_error = 0.0\nsamples = 1\nvalue = 72500.0", fillcolor="#fef8f5"] ;
6 -> 10 ;
11 [label="Functional <= 5.5\nsquared_error = 280717405.107\nsamples = 27\nvalue = 93688.727", fillcolor="#fdf5ef"] ;
5 -> 11 ;
12 [label="HouseStyle_2Story <= 0.5\nsquared_error = 8000000.0\nsamples = 2\nvalue = 57000.0", fillcolor="#fefbf9"] ;
11 -> 12 ;
13 [label="squared_error = 0.0\nsamples = 1\nvalue = 61000.0", fillcolor="#fefaf8"] ;
12 -> 13 ;
14 [label="squared_error = 0.0\nsamples = 1\nvalue = 55000.0", fillcolor="#fefbf9"] ;
12 -> 14 ;
15 [label="TotalBsmtSF <= 682.0\nsquared_error = 194973183.367\nsamples = 25\nvalue = 96373.268", fillcolor="#fdf4ee"] ;
11 -> 15 ;
16 [label="2ndFlrSF <= 527.0\nsquared_error = 109171388.889\nsamples = 15\nvalue = 89908.333", fillcolor="#fdf5f0"] ;
15 -> 16 ;
17 [label="Heating_Wall <= 0.5\nsquared_error = 36313564.014\nsamples = 10\nvalue = 84276.471", fillcolor="#fdf6f1"] ;
16 -> 17 ;
18 [label="SaleType_WD <= 0.5\nsquared_error = 23868055.556\nsamples = 8\nvalue = 81583.333", fillcolor="#fdf7f2"] ;
17 -> 18 ;
19 [label="squared_error = 0.0\nsamples = 1\nvalue = 95000.0", fillcolor="#fdf4ee"] ;
18 -> 19 ;
20 [label="LotArea <= 5636.0\nsquared_error = 8185950.413\nsamples = 7\nvalue = 80363.636", fillcolor="#fdf7f2"] ;
18 -> 20 ;
21 [label="squared_error = 0.0\nsamples = 1\nvalue = 73000.0", fillcolor="#fef8f4"] ;
20 -> 21 ;
22 [label="YearBuilt <= 1949.5\nsquared_error = 3040000.0\nsamples = 6\nvalue = 81100.0", fillcolor="#fdf7f2"] ;
20 -> 22 ;
23 [label="1stFlrSF <= 622.0\nsquared_error = 388888.889\nsamples = 3\nvalue = 79833.333", fillcolor="#fdf7f2"] ;
22 -> 23 ;
24 [label="squared_error = 0.0\nsamples = 1\nvalue = 79000.0", fillcolor="#fdf7f3"] ;
23 -> 24 ;
25 [label="BsmtQual <= 2.0\nsquared_error = 62500.0\nsamples = 2\nvalue = 80250.0", fillcolor="#fdf7f2"] ;
23 -> 25 ;
26 [label="squared_error = 0.0\nsamples = 1\nvalue = 80500.0", fillcolor="#fdf7f2"] ;
25 -> 26 ;
27 [label="squared_error = 0.0\nsamples = 1\nvalue = 80000.0", fillcolor="#fdf7f2"] ;
25 -> 27 ;
28 [label="Exterior1st_Wd Sdng <= 0.5\nsquared_error = 1000000.0\nsamples = 3\nvalue = 83000.0", fillcolor="#fdf6f2"] ;
22 -> 28 ;
29 [label="squared_error = 0.0\nsamples = 2\nvalue = 82000.0", fillcolor="#fdf7f2"] ;
28 -> 29 ;
30 [label="squared_error = 0.0\nsamples = 1\nvalue = 84000.0", fillcolor="#fdf6f1"] ;
28 -> 30 ;
31 [label="YearBuilt <= 1949.5\nsquared_error = 6998400.0\nsamples = 2\nvalue = 90740.0", fillcolor="#fdf5ef"] ;
17 -> 31 ;
32 [label="squared_error = 0.0\nsamples = 1\nvalue = 87500.0", fillcolor="#fdf6f0"] ;
31 -> 32 ;
33 [label="squared_error = 0.0\nsamples = 1\nvalue = 92900.0", fillcolor="#fdf5ef"] ;
31 -> 33 ;
34 [label="MSZoning_RM <= 0.5\nsquared_error = 22011938.776\nsamples = 5\nvalue = 103585.714", fillcolor="#fcf3ec"] ;
16 -> 34 ;
35 [label="BsmtUnfSF <= 340.5\nsquared_error = 9420625.0\nsamples = 3\nvalue = 107025.0", fillcolor="#fcf2eb"] ;
34 -> 35 ;
36 [label="Exterior1st_Wd Sdng <= 0.5\nsquared_error = 1560555.556\nsamples = 2\nvalue = 105366.667", fillcolor="#fcf2eb"] ;
35 -> 36 ;
37 [label="squared_error = 0.0\nsamples = 1\nvalue = 106250.0", fillcolor="#fcf2eb"] ;
36 -> 37 ;
38 [label="squared_error = 0.0\nsamples = 1\nvalue = 103600.0", fillcolor="#fcf3ec"] ;
36 -> 38 ;
39 [label="squared_error = 0.0\nsamples = 1\nvalue = 112000.0", fillcolor="#fcf1ea"] ;
35 -> 39 ;
40 [label="Alley <= inf\nsquared_error = 2000000.0\nsamples = 2\nvalue = 99000.0", fillcolor="#fdf4ed"] ;
34 -> 40 ;
41 [label="squared_error = 0.0\nsamples = 1\nvalue = 98000.0", fillcolor="#fdf4ed"] ;
40 -> 41 ;
42 [label="squared_error = 0.0\nsamples = 1\nvalue = 101000.0", fillcolor="#fdf3ed"] ;
40 -> 42 ;
43 [label="LotFrontage <= 57.5\nsquared_error = 173798353.827\nsamples = 10\nvalue = 105500.235", fillcolor="#fcf2eb"] ;
15 -> 43 ;
44 [label="BsmtUnfSF <= 576.0\nsquared_error = 8500000.0\nsamples = 4\nvalue = 93000.0", fillcolor="#fdf5ef"] ;
43 -> 44 ;
45 [label="MoSold <= 5.5\nsquared_error = 2000000.0\nsamples = 2\nvalue = 90000.0", fillcolor="#fdf5f0"] ;
44 -> 45 ;
46 [label="squared_error = 0.0\nsamples = 1\nvalue = 91000.0", fillcolor="#fdf5ef"] ;
45 -> 46 ;
47 [label="squared_error = 0.0\nsamples = 1\nvalue = 88000.0", fillcolor="#fdf6f0"] ;
45 -> 47 ;
48 [label="YearRemodAdd <= 1973.0\nsquared_error = 1562500.0\nsamples = 2\nvalue = 95250.0", fillcolor="#fdf4ee"] ;
44 -> 48 ;
49 [label="squared_error = 0.0\nsamples = 1\nvalue = 96500.0", fillcolor="#fdf4ee"] ;
48 -> 49 ;
50 [label="squared_error = 0.0\nsamples = 1\nvalue = 94000.0", fillcolor="#fdf5ef"] ;
48 -> 50 ;
51 [label="LotArea <= 8663.0\nsquared_error = 103562701.44\nsamples = 6\nvalue = 114250.4", fillcolor="#fcf1e9"] ;
43 -> 51 ;
52 [label="TotalBsmtSF <= 840.0\nsquared_error = 31377502.222\nsamples = 4\nvalue = 107417.333", fillcolor="#fcf2eb"] ;
51 -> 52 ;
53 [label="MSSubClass_90 <= 0.5\nsquared_error = 3803628.0\nsamples = 2\nvalue = 111126.0", fillcolor="#fcf1ea"] ;
52 -> 53 ;
54 [label="squared_error = 0.0\nsamples = 1\nvalue = 114504.0", fillcolor="#fcf1e9"] ;
53 -> 54 ;
55 [label="squared_error = 0.0\nsamples = 1\nvalue = 110000.0", fillcolor="#fcf2ea"] ;
53 -> 55 ;
56 [label="Electrical_FuseA <= 0.5\nsquared_error = 4000000.0\nsamples = 2\nvalue = 100000.0", fillcolor="#fdf3ed"] ;
52 -> 56 ;
57 [label="squared_error = 0.0\nsamples = 1\nvalue = 102000.0", fillcolor="#fdf3ec"] ;
56 -> 57 ;
58 [label="squared_error = 0.0\nsamples = 1\nvalue = 98000.0", fillcolor="#fdf4ed"] ;
56 -> 58 ;
59 [label="SaleCondition_Abnorml <= 0.5\nsquared_error = 36750000.0\nsamples = 2\nvalue = 124500.0", fillcolor="#fcefe6"] ;
51 -> 59 ;
60 [label="squared_error = 0.0\nsamples = 1\nvalue = 121000.0", fillcolor="#fcf0e7"] ;
59 -> 60 ;
61 [label="squared_error = 0.0\nsamples = 1\nvalue = 135000.0", fillcolor="#fbede3"] ;
59 -> 61 ;
62 [label="TotalBsmtSF <= 790.5\nsquared_error = 217885489.801\nsamples = 84\nvalue = 111870.866", fillcolor="#fcf1ea"] ;
4 -> 62 ;
63 [label="HeatingQC <= 4.5\nsquared_error = 182850986.294\nsamples = 42\nvalue = 105818.033", fillcolor="#fcf2eb"] ;
62 -> 63 ;
64 [label="GrLivArea <= 1225.5\nsquared_error = 137795432.099\nsamples = 36\nvalue = 103511.111", fillcolor="#fcf3ec"] ;
63 -> 64 ;
65 [label="BsmtFinSF1 <= 313.0\nsquared_error = 109481903.114\nsamples = 24\nvalue = 98252.941", fillcolor="#fdf4ed"] ;
64 -> 65 ;
66 [label="Electrical_SBrkr <= 0.5\nsquared_error = 88305351.474\nsamples = 16\nvalue = 94080.952", fillcolor="#fdf4ee"] ;
65 -> 66 ;
67 [label="Exterior2nd_Wd Sdng <= 0.5\nsquared_error = 18837600.0\nsamples = 4\nvalue = 104880.0", fillcolor="#fcf3eb"] ;
66 -> 67 ;
68 [label="squared_error = 0.0\nsamples = 1\nvalue = 100000.0", fillcolor="#fdf3ed"] ;
67 -> 68 ;
69 [label="Neighborhood_NAmes <= 0.5\nsquared_error = 4935555.556\nsamples = 3\nvalue = 108133.333", fillcolor="#fcf2eb"] ;
67 -> 69 ;
70 [label="squared_error = 0.0\nsamples = 1\nvalue = 105000.0", fillcolor="#fcf3eb"] ;
69 -> 70 ;
71 [label="Foundation_Slab <= 0.5\nsquared_error = 40000.0\nsamples = 2\nvalue = 109700.0", fillcolor="#fcf2ea"] ;
69 -> 71 ;
72 [label="squared_error = 0.0\nsamples = 1\nvalue = 109500.0", fillcolor="#fcf2ea"] ;
71 -> 72 ;
73 [label="squared_error = 0.0\nsamples = 1\nvalue = 109900.0", fillcolor="#fcf2ea"] ;
71 -> 73 ;
74 [label="GrLivArea <= 1017.0\nsquared_error = 62181835.938\nsamples = 12\nvalue = 90706.25", fillcolor="#fdf5ef"] ;
66 -> 74 ;
75 [label="Condition1_Artery <= 0.5\nsquared_error = 1200000.0\nsamples = 3\nvalue = 82000.0", fillcolor="#fdf7f2"] ;
74 -> 75 ;
76 [label="LotFrontage <= 40.5\nsquared_error = 250000.0\nsamples = 2\nvalue = 82500.0", fillcolor="#fdf7f2"] ;
75 -> 76 ;
77 [label="squared_error = 0.0\nsamples = 1\nvalue = 83000.0", fillcolor="#fdf6f2"] ;
76 -> 77 ;
78 [label="squared_error = 0.0\nsamples = 1\nvalue = 82000.0", fillcolor="#fdf7f2"] ;
76 -> 78 ;
79 [label="squared_error = 0.0\nsamples = 1\nvalue = 80000.0", fillcolor="#fdf7f2"] ;
75 -> 79 ;
80 [label="1stFlrSF <= 683.0\nsquared_error = 39785950.413\nsamples = 9\nvalue = 94663.636", fillcolor="#fdf4ee"] ;
74 -> 80 ;
81 [label="HalfBath <= 0.5\nsquared_error = 18375000.0\nsamples = 3\nvalue = 88000.0", fillcolor="#fdf6f0"] ;
80 -> 81 ;
82 [label="squared_error = 0.0\nsamples = 1\nvalue = 81000.0", fillcolor="#fdf7f2"] ;
81 -> 82 ;
83 [label="YrSold <= 2007.5\nsquared_error = 2722222.222\nsamples = 2\nvalue = 90333.333", fillcolor="#fdf5f0"] ;
81 -> 83 ;
84 [label="squared_error = 0.0\nsamples = 1\nvalue = 91500.0", fillcolor="#fdf5ef"] ;
83 -> 84 ;
85 [label="squared_error = 0.0\nsamples = 1\nvalue = 88000.0", fillcolor="#fdf6f0"] ;
83 -> 85 ;
86 [label="GarageYrBlt <= 1952.0\nsquared_error = 12147755.102\nsamples = 6\nvalue = 98471.429", fillcolor="#fdf4ed"] ;
80 -> 86 ;
87 [label="Foundation_Slab <= 0.5\nsquared_error = 3691875.0\nsamples = 3\nvalue = 96075.0", fillcolor="#fdf4ee"] ;
86 -> 87 ;
88 [label="RoofStyle_Gable <= 0.5\nsquared_error = 720000.0\nsamples = 2\nvalue = 97100.0", fillcolor="#fdf4ee"] ;
87 -> 88 ;
89 [label="squared_error = 0.0\nsamples = 1\nvalue = 98300.0", fillcolor="#fdf4ed"] ;
88 -> 89 ;
90 [label="squared_error = 0.0\nsamples = 1\nvalue = 96500.0", fillcolor="#fdf4ee"] ;
88 -> 90 ;
91 [label="squared_error = 0.0\nsamples = 1\nvalue = 93000.0", fillcolor="#fdf5ef"] ;
87 -> 91 ;
92 [label="GarageCars <= 2.0\nsquared_error = 5555555.556\nsamples = 3\nvalue = 101666.667", fillcolor="#fdf3ec"] ;
86 -> 92 ;
93 [label="squared_error = 0.0\nsamples = 2\nvalue = 100000.0", fillcolor="#fdf3ed"] ;
92 -> 93 ;
94 [label="squared_error = 0.0\nsamples = 1\nvalue = 105000.0", fillcolor="#fcf3eb"] ;
92 -> 94 ;
95 [label="BsmtUnfSF <= 157.5\nsquared_error = 70154556.213\nsamples = 8\nvalue = 104992.308", fillcolor="#fcf3eb"] ;
65 -> 95 ;
96 [label="2ndFlrSF <= 252.0\nsquared_error = 30250000.0\nsamples = 2\nvalue = 94500.0", fillcolor="#fdf4ee"] ;
95 -> 96 ;
97 [label="squared_error = 0.0\nsamples = 1\nvalue = 89000.0", fillcolor="#fdf5f0"] ;
96 -> 97 ;
98 [label="squared_error = 0.0\nsamples = 1\nvalue = 100000.0", fillcolor="#fdf3ed"] ;
96 -> 98 ;
99 [label="OpenPorchSF <= 14.0\nsquared_error = 17215802.469\nsamples = 6\nvalue = 109655.556", fillcolor="#fcf2ea"] ;
95 -> 99 ;
100 [label="BsmtFinSF1 <= 481.0\nsquared_error = 4212500.0\nsamples = 3\nvalue = 107150.0", fillcolor="#fcf2eb"] ;
99 -> 100 ;
101 [label="MSSubClass_160 <= 0.5\nsquared_error = 226875.0\nsamples = 2\nvalue = 105725.0", fillcolor="#fcf2eb"] ;
100 -> 101 ;
102 [label="squared_error = 0.0\nsamples = 1\nvalue = 104900.0", fillcolor="#fcf3eb"] ;
101 -> 102 ;
103 [label="squared_error = 0.0\nsamples = 1\nvalue = 106000.0", fillcolor="#fcf2eb"] ;
101 -> 103 ;
104 [label="squared_error = 0.0\nsamples = 1\nvalue = 110000.0", fillcolor="#fcf2ea"] ;
100 -> 104 ;
105 [label="HeatingQC <= 3.5\nsquared_error = 5555555.556\nsamples = 3\nvalue = 114666.667", fillcolor="#fcf1e9"] ;
99 -> 105 ;
106 [label="squared_error = 0.0\nsamples = 2\nvalue = 113000.0", fillcolor="#fcf1e9"] ;
105 -> 106 ;
107 [label="squared_error = 0.0\nsamples = 1\nvalue = 118000.0", fillcolor="#fcf0e8"] ;
105 -> 107 ;
108 [label="MoSold <= 3.5\nsquared_error = 59022500.0\nsamples = 12\nvalue = 112450.0", fillcolor="#fcf1e9"] ;
64 -> 108 ;
109 [label="squared_error = 0.0\nsamples = 2\nvalue = 127000.0", fillcolor="#fcefe5"] ;
108 -> 109 ;
110 [label="2ndFlrSF <= 562.0\nsquared_error = 39444444.444\nsamples = 10\nvalue = 110833.333", fillcolor="#fcf2ea"] ;
108 -> 110 ;
111 [label="GarageCars <= 0.5\nsquared_error = 15500000.0\nsamples = 5\nvalue = 106000.0", fillcolor="#fcf2eb"] ;
110 -> 111 ;
112 [label="squared_error = 0.0\nsamples = 1\nvalue = 97000.0", fillcolor="#fdf4ee"] ;
111 -> 112 ;
113 [label="YearBuilt <= 1929.5\nsquared_error = 4489795.918\nsamples = 4\nvalue = 107285.714", fillcolor="#fcf2eb"] ;
111 -> 113 ;
114 [label="1stFlrSF <= 789.5\nsquared_error = 1000000.0\nsamples = 2\nvalue = 109000.0", fillcolor="#fcf2ea"] ;
113 -> 114 ;
115 [label="squared_error = 0.0\nsamples = 1\nvalue = 110000.0", fillcolor="#fcf2ea"] ;
114 -> 115 ;
116 [label="squared_error = 0.0\nsamples = 1\nvalue = 108000.0", fillcolor="#fcf2eb"] ;
114 -> 116 ;
117 [label="squared_error = 0.0\nsamples = 2\nvalue = 105000.0", fillcolor="#fcf3eb"] ;
113 -> 117 ;
118 [label="2ndFlrSF <= 647.0\nsquared_error = 24960000.0\nsamples = 5\nvalue = 114700.0", fillcolor="#fcf1e9"] ;
110 -> 118 ;
119 [label="YearBuilt <= 1914.0\nsquared_error = 13740000.0\nsamples = 3\nvalue = 118600.0", fillcolor="#fcf0e8"] ;
118 -> 119 ;
120 [label="squared_error = 0.0\nsamples = 1\nvalue = 125500.0", fillcolor="#fcefe6"] ;
119 -> 120 ;
121 [label="WoodDeckSF <= 103.5\nsquared_error = 2296875.0\nsamples = 2\nvalue = 116875.0", fillcolor="#fcf0e8"] ;
119 -> 121 ;
122 [label="squared_error = 0.0\nsamples = 1\nvalue = 119500.0", fillcolor="#fcf0e7"] ;
121 -> 122 ;
123 [label="squared_error = 0.0\nsamples = 1\nvalue = 116000.0", fillcolor="#fcf1e8"] ;
121 -> 123 ;
124 [label="Id <= 665.5\nsquared_error = 5760000.0\nsamples = 2\nvalue = 110800.0", fillcolor="#fcf2ea"] ;
118 -> 124 ;
125 [label="squared_error = 0.0\nsamples = 1\nvalue = 112000.0", fillcolor="#fcf1ea"] ;
124 -> 125 ;
126 [label="squared_error = 0.0\nsamples = 1\nvalue = 106000.0", fillcolor="#fcf2eb"] ;
124 -> 126 ;
127 [label="HouseStyle_2Story <= 0.5\nsquared_error = 172661224.49\nsamples = 6\nvalue = 123614.286", fillcolor="#fcefe6"] ;
63 -> 127 ;
128 [label="WoodDeckSF <= 32.0\nsquared_error = 55609166.667\nsamples = 5\nvalue = 119050.0", fillcolor="#fcf0e8"] ;
127 -> 128 ;
129 [label="YearBuilt <= 1946.5\nsquared_error = 19986875.0\nsamples = 3\nvalue = 123575.0", fillcolor="#fcefe6"] ;
128 -> 129 ;
130 [label="squared_error = 0.0\nsamples = 1\nvalue = 130500.0", fillcolor="#fbeee4"] ;
129 -> 130 ;
131 [label="LotArea <= 8734.5\nsquared_error = 5335555.556\nsamples = 2\nvalue = 121266.667", fillcolor="#fcf0e7"] ;
129 -> 131 ;
132 [label="squared_error = 0.0\nsamples = 1\nvalue = 122900.0", fillcolor="#fcefe6"] ;
131 -> 132 ;
133 [label="squared_error = 0.0\nsamples = 1\nvalue = 118000.0", fillcolor="#fcf0e8"] ;
131 -> 133 ;
134 [label="Exterior2nd_Wd Sdng <= 0.5\nsquared_error = 4000000.0\nsamples = 2\nvalue = 110000.0", fillcolor="#fcf2ea"] ;
128 -> 134 ;
135 [label="squared_error = 0.0\nsamples = 1\nvalue = 112000.0", fillcolor="#fcf1ea"] ;
134 -> 135 ;
136 [label="squared_error = 0.0\nsamples = 1\nvalue = 108000.0", fillcolor="#fcf2eb"] ;
134 -> 136 ;
137 [label="squared_error = 0.0\nsamples = 1\nvalue = 151000.0", fillcolor="#fbeadf"] ;
127 -> 137 ;
138 [label="BsmtUnfSF <= 459.5\nsquared_error = 185108558.31\nsamples = 42\nvalue = 117465.152", fillcolor="#fcf0e8"] ;
62 -> 138 ;
139 [label="Electrical_FuseF <= 0.5\nsquared_error = 119831012.812\nsamples = 24\nvalue = 124522.368", fillcolor="#fcefe6"] ;
138 -> 139 ;
140 [label="1stFlrSF <= 1157.5\nsquared_error = 59460134.694\nsamples = 22\nvalue = 126867.143", fillcolor="#fcefe5"] ;
139 -> 140 ;
141 [label="YearRemodAdd <= 1975.5\nsquared_error = 42866110.84\nsamples = 20\nvalue = 125542.188", fillcolor="#fcefe6"] ;
140 -> 141 ;
142 [label="BsmtUnfSF <= 372.0\nsquared_error = 24099690.083\nsamples = 13\nvalue = 122559.091", fillcolor="#fcefe7"] ;
141 -> 142 ;
143 [label="LandContour_Bnk <= 0.5\nsquared_error = 10933112.245\nsamples = 9\nvalue = 119878.571", fillcolor="#fcf0e7"] ;
142 -> 143 ;
144 [label="BsmtExposure <= 1.5\nsquared_error = 3690059.172\nsamples = 8\nvalue = 120638.462", fillcolor="#fcf0e7"] ;
143 -> 144 ;
145 [label="BsmtFinType1 <= 2.5\nsquared_error = 434722.222\nsamples = 4\nvalue = 118816.667", fillcolor="#fcf0e8"] ;
144 -> 145 ;
146 [label="squared_error = 0.0\nsamples = 1\nvalue = 118000.0", fillcolor="#fcf0e8"] ;
145 -> 146 ;
147 [label="WoodDeckSF <= 210.5\nsquared_error = 151875.0\nsamples = 3\nvalue = 119225.0", fillcolor="#fcf0e7"] ;
145 -> 147 ;
148 [label="squared_error = 0.0\nsamples = 2\nvalue = 119000.0", fillcolor="#fcf0e8"] ;
147 -> 148 ;
149 [label="squared_error = 0.0\nsamples = 1\nvalue = 119900.0", fillcolor="#fcf0e7"] ;
147 -> 149 ;
150 [label="BsmtFullBath <= 0.5\nsquared_error = 1197142.857\nsamples = 4\nvalue = 122200.0", fillcolor="#fcf0e7"] ;
144 -> 150 ;
151 [label="YearRemodAdd <= 1973.5\nsquared_error = 368055.556\nsamples = 3\nvalue = 122583.333", fillcolor="#fcefe7"] ;
150 -> 151 ;
152 [label="YearBuilt <= 1962.0\nsquared_error = 55555.556\nsamples = 2\nvalue = 123166.667", fillcolor="#fcefe6"] ;
151 -> 152 ;
153 [label="squared_error = 0.0\nsamples = 1\nvalue = 123500.0", fillcolor="#fcefe6"] ;
152 -> 153 ;
154 [label="squared_error = 0.0\nsamples = 1\nvalue = 123000.0", fillcolor="#fcefe6"] ;
152 -> 154 ;
155 [label="squared_error = 0.0\nsamples = 1\nvalue = 122000.0", fillcolor="#fcf0e7"] ;
151 -> 155 ;
156 [label="squared_error = 0.0\nsamples = 1\nvalue = 119900.0", fillcolor="#fcf0e7"] ;
150 -> 156 ;
157 [label="squared_error = 0.0\nsamples = 1\nvalue = 110000.0", fillcolor="#fcf2ea"] ;
143 -> 157 ;
158 [label="Fence <= 1.5\nsquared_error = 12562500.0\nsamples = 4\nvalue = 127250.0", fillcolor="#fcefe5"] ;
142 -> 158 ;
159 [label="TotalBsmtSF <= 874.0\nsquared_error = 4500000.0\nsamples = 3\nvalue = 129000.0", fillcolor="#fceee5"] ;
158 -> 159 ;
160 [label="squared_error = 0.0\nsamples = 1\nvalue = 133500.0", fillcolor="#fbeee4"] ;
159 -> 160 ;
161 [label="MoSold <= 8.0\nsquared_error = 540000.0\nsamples = 2\nvalue = 128100.0", fillcolor="#fceee5"] ;
159 -> 161 ;
162 [label="squared_error = 0.0\nsamples = 1\nvalue = 129000.0", fillcolor="#fceee5"] ;
161 -> 162 ;
163 [label="squared_error = 0.0\nsamples = 1\nvalue = 127500.0", fillcolor="#fcefe5"] ;
161 -> 163 ;
164 [label="squared_error = 0.0\nsamples = 1\nvalue = 122000.0", fillcolor="#fcf0e7"] ;
158 -> 164 ;
165 [label="LotArea <= 5182.0\nsquared_error = 21504225.0\nsamples = 7\nvalue = 132105.0", fillcolor="#fbeee4"] ;
141 -> 165 ;
166 [label="squared_error = 0.0\nsamples = 1\nvalue = 143750.0", fillcolor="#fbece1"] ;
165 -> 166 ;
167 [label="WoodDeckSF <= 178.0\nsquared_error = 7152098.765\nsamples = 6\nvalue = 130811.111", fillcolor="#fbeee4"] ;
165 -> 167 ;
168 [label="OpenPorchSF <= 48.0\nsquared_error = 3051020.408\nsamples = 4\nvalue = 129642.857", fillcolor="#fceee5"] ;
167 -> 168 ;
169 [label="BsmtFinSF2 <= 465.0\nsquared_error = 222222.222\nsamples = 3\nvalue = 130333.333", fillcolor="#fceee4"] ;
168 -> 169 ;
170 [label="squared_error = 0.0\nsamples = 1\nvalue = 131000.0", fillcolor="#fbeee4"] ;
169 -> 170 ;
171 [label="squared_error = 0.0\nsamples = 2\nvalue = 130000.0", fillcolor="#fceee4"] ;
169 -> 171 ;
172 [label="squared_error = 0.0\nsamples = 1\nvalue = 125500.0", fillcolor="#fcefe6"] ;
168 -> 172 ;
173 [label="WoodDeckSF <= 207.0\nsquared_error = 10000.0\nsamples = 2\nvalue = 134900.0", fillcolor="#fbede3"] ;
167 -> 173 ;
174 [label="squared_error = 0.0\nsamples = 1\nvalue = 135000.0", fillcolor="#fbede3"] ;
173 -> 174 ;
175 [label="squared_error = 0.0\nsamples = 1\nvalue = 134800.0", fillcolor="#fbede3"] ;
173 -> 175 ;
176 [label="GarageArea <= 391.5\nsquared_error = 18000000.0\nsamples = 2\nvalue = 141000.0", fillcolor="#fbece1"] ;
140 -> 176 ;
177 [label="squared_error = 0.0\nsamples = 1\nvalue = 135000.0", fillcolor="#fbede3"] ;
176 -> 177 ;
178 [label="squared_error = 0.0\nsamples = 1\nvalue = 144000.0", fillcolor="#fbece1"] ;
176 -> 178 ;
179 [label="RoofStyle_Hip <= 0.5\nsquared_error = 11680555.556\nsamples = 2\nvalue = 97166.667", fillcolor="#fdf4ee"] ;
139 -> 179 ;
180 [label="squared_error = 0.0\nsamples = 1\nvalue = 102000.0", fillcolor="#fdf3ec"] ;
179 -> 180 ;
181 [label="squared_error = 0.0\nsamples = 1\nvalue = 94750.0", fillcolor="#fdf4ee"] ;
179 -> 181 ;
182 [label="MoSold <= 3.5\nsquared_error = 114376540.179\nsamples = 18\nvalue = 107887.5", fillcolor="#fcf2eb"] ;
138 -> 182 ;
183 [label="Electrical_SBrkr <= 0.5\nsquared_error = 5062500.0\nsamples = 2\nvalue = 84750.0", fillcolor="#fdf6f1"] ;
182 -> 183 ;
184 [label="squared_error = 0.0\nsamples = 1\nvalue = 87000.0", fillcolor="#fdf6f0"] ;
183 -> 184 ;
185 [label="squared_error = 0.0\nsamples = 1\nvalue = 82500.0", fillcolor="#fdf7f2"] ;
183 -> 185 ;
186 [label="SaleType_ConLD <= 0.5\nsquared_error = 78437296.598\nsamples = 16\nvalue = 109667.308", fillcolor="#fcf2ea"] ;
182 -> 186 ;
187 [label="GrLivArea <= 926.0\nsquared_error = 44713336.0\nsamples = 15\nvalue = 110858.0", fillcolor="#fcf2ea"] ;
186 -> 187 ;
188 [label="LotFrontage <= 67.5\nsquared_error = 21607274.306\nsamples = 6\nvalue = 106120.833", fillcolor="#fcf2eb"] ;
187 -> 188 ;
189 [label="MoSold <= 6.5\nsquared_error = 7176875.0\nsamples = 3\nvalue = 103425.0", fillcolor="#fcf3ec"] ;
188 -> 189 ;
190 [label="squared_error = 0.0\nsamples = 1\nvalue = 105500.0", fillcolor="#fcf2eb"] ;
189 -> 190 ;
191 [label="BedroomAbvGr <= 2.5\nsquared_error = 2222.222\nsamples = 2\nvalue = 99966.667", fillcolor="#fdf3ed"] ;
189 -> 191 ;
192 [label="squared_error = 0.0\nsamples = 1\nvalue = 99900.0", fillcolor="#fdf3ed"] ;
191 -> 192 ;
193 [label="squared_error = 0.0\nsamples = 1\nvalue = 100000.0", fillcolor="#fdf3ed"] ;
191 -> 193 ;
194 [label="Exterior2nd_MetalSd <= 0.5\nsquared_error = 6862968.75\nsamples = 3\nvalue = 111512.5", fillcolor="#fcf1ea"] ;
188 -> 194 ;
195 [label="squared_error = 0.0\nsamples = 2\nvalue = 110000.0", fillcolor="#fcf2ea"] ;
194 -> 195 ;
196 [label="squared_error = 0.0\nsamples = 1\nvalue = 116050.0", fillcolor="#fcf1e8"] ;
194 -> 196 ;
197 [label="Id <= 885.0\nsquared_error = 26206360.947\nsamples = 9\nvalue = 115230.769", fillcolor="#fcf1e9"] ;
187 -> 197 ;
198 [label="Id <= 559.5\nsquared_error = 7602040.816\nsamples = 5\nvalue = 111071.429", fillcolor="#fcf1ea"] ;
197 -> 198 ;
199 [label="BsmtQual <= 3.5\nsquared_error = 921875.0\nsamples = 3\nvalue = 113375.0", fillcolor="#fcf1e9"] ;
198 -> 199 ;
200 [label="1stFlrSF <= 988.0\nsquared_error = 55555.556\nsamples = 2\nvalue = 112833.333", fillcolor="#fcf1e9"] ;
199 -> 200 ;
201 [label="squared_error = 0.0\nsamples = 1\nvalue = 112500.0", fillcolor="#fcf1e9"] ;
200 -> 201 ;
202 [label="squared_error = 0.0\nsamples = 1\nvalue = 113000.0", fillcolor="#fcf1e9"] ;
200 -> 202 ;
203 [label="squared_error = 0.0\nsamples = 1\nvalue = 115000.0", fillcolor="#fcf1e9"] ;
199 -> 203 ;
204 [label="squared_error = 0.0\nsamples = 2\nvalue = 108000.0", fillcolor="#fcf2eb"] ;
198 -> 204 ;
205 [label="MSSubClass_20 <= 0.5\nsquared_error = 4180555.556\nsamples = 4\nvalue = 120083.333", fillcolor="#fcf0e7"] ;
197 -> 205 ;
206 [label="BsmtFullBath <= 0.5\nsquared_error = 1335000.0\nsamples = 3\nvalue = 119300.0", fillcolor="#fcf0e7"] ;
205 -> 206 ;
207 [label="MSZoning_RM <= 0.5\nsquared_error = 15625.0\nsamples = 2\nvalue = 119875.0", fillcolor="#fcf0e7"] ;
206 -> 207 ;
208 [label="squared_error = 0.0\nsamples = 1\nvalue = 119750.0", fillcolor="#fcf0e7"] ;
207 -> 208 ;
209 [label="squared_error = 0.0\nsamples = 1\nvalue = 120000.0", fillcolor="#fcf0e7"] ;
207 -> 209 ;
210 [label="squared_error = 0.0\nsamples = 1\nvalue = 117000.0", fillcolor="#fcf0e8"] ;
206 -> 210 ;
211 [label="squared_error = 0.0\nsamples = 1\nvalue = 124000.0", fillcolor="#fcefe6"] ;
205 -> 211 ;
212 [label="squared_error = 0.0\nsamples = 1\nvalue = 79900.0", fillcolor="#fdf7f2"] ;
186 -> 212 ;
213 [label="1stFlrSF <= 879.5\nsquared_error = 287135718.505\nsamples = 53\nvalue = 130447.246", fillcolor="#fceee4"] ;
3 -> 213 ;
214 [label="TotalBsmtSF <= 522.0\nsquared_error = 191634816.0\nsamples = 19\nvalue = 116972.0", fillcolor="#fcf0e8"] ;
213 -> 214 ;
215 [label="GarageQual <= 2.5\nsquared_error = 12055555.556\nsamples = 3\nvalue = 87833.333", fillcolor="#fdf6f0"] ;
214 -> 215 ;
216 [label="squared_error = 0.0\nsamples = 1\nvalue = 83000.0", fillcolor="#fdf6f2"] ;
215 -> 216 ;
217 [label="1stFlrSF <= 504.5\nsquared_error = 562500.0\nsamples = 2\nvalue = 90250.0", fillcolor="#fdf5f0"] ;
215 -> 217 ;
218 [label="squared_error = 0.0\nsamples = 1\nvalue = 89500.0", fillcolor="#fdf5f0"] ;
217 -> 218 ;
219 [label="squared_error = 0.0\nsamples = 1\nvalue = 91000.0", fillcolor="#fdf5ef"] ;
217 -> 219 ;
220 [label="GarageYrBlt <= 1988.0\nsquared_error = 84553388.43\nsamples = 16\nvalue = 120945.455", fillcolor="#fcf0e7"] ;
214 -> 220 ;
221 [label="GarageQual <= 1.5\nsquared_error = 59975510.204\nsamples = 15\nvalue = 122085.714", fillcolor="#fcf0e7"] ;
220 -> 221 ;
222 [label="Exterior1st_Wd Sdng <= 0.5\nsquared_error = 35602040.816\nsamples = 5\nvalue = 115071.429", fillcolor="#fcf1e9"] ;
221 -> 222 ;
223 [label="LotFrontage <= 60.0\nsquared_error = 11500000.0\nsamples = 4\nvalue = 113000.0", fillcolor="#fcf1e9"] ;
222 -> 223 ;
224 [label="Exterior1st_MetalSd <= 0.5\nsquared_error = 222222.222\nsamples = 2\nvalue = 109833.333", fillcolor="#fcf2ea"] ;
223 -> 224 ;
225 [label="squared_error = 0.0\nsamples = 1\nvalue = 110500.0", fillcolor="#fcf2ea"] ;
224 -> 225 ;
226 [label="squared_error = 0.0\nsamples = 1\nvalue = 109500.0", fillcolor="#fcf2ea"] ;
224 -> 226 ;
227 [label="BldgType_Duplex <= 0.5\nsquared_error = 2722222.222\nsamples = 2\nvalue = 116166.667", fillcolor="#fcf1e8"] ;
223 -> 227 ;
228 [label="squared_error = 0.0\nsamples = 1\nvalue = 115000.0", fillcolor="#fcf1e9"] ;
227 -> 228 ;
229 [label="squared_error = 0.0\nsamples = 1\nvalue = 118500.0", fillcolor="#fcf0e8"] ;
227 -> 229 ;
230 [label="squared_error = 0.0\nsamples = 1\nvalue = 127500.0", fillcolor="#fcefe5"] ;
222 -> 230 ;
231 [label="Exterior2nd_HdBoard <= 0.5\nsquared_error = 35262091.837\nsamples = 10\nvalue = 125592.857", fillcolor="#fcefe6"] ;
221 -> 231 ;
232 [label="Exterior1st_MetalSd <= 0.5\nsquared_error = 12567768.595\nsamples = 8\nvalue = 127936.364", fillcolor="#fceee5"] ;
231 -> 232 ;
233 [label="LotConfig_CulDSac <= 0.5\nsquared_error = 3731020.408\nsamples = 5\nvalue = 130242.857", fillcolor="#fceee4"] ;
232 -> 233 ;
234 [label="GrLivArea <= 854.5\nsquared_error = 135555.556\nsamples = 4\nvalue = 129466.667", fillcolor="#fceee5"] ;
233 -> 234 ;
235 [label="GarageArea <= 334.0\nsquared_error = 40000.0\nsamples = 3\nvalue = 129700.0", fillcolor="#fceee5"] ;
234 -> 235 ;
236 [label="squared_error = 0.0\nsamples = 1\nvalue = 129900.0", fillcolor="#fceee5"] ;
235 -> 236 ;
237 [label="squared_error = 0.0\nsamples = 2\nvalue = 129500.0", fillcolor="#fceee5"] ;
235 -> 237 ;
238 [label="squared_error = 0.0\nsamples = 1\nvalue = 129000.0", fillcolor="#fceee5"] ;
234 -> 238 ;
239 [label="squared_error = 0.0\nsamples = 1\nvalue = 134900.0", fillcolor="#fbede3"] ;
233 -> 239 ;
240 [label="MoSold <= 6.5\nsquared_error = 2430000.0\nsamples = 3\nvalue = 123900.0", fillcolor="#fcefe6"] ;
232 -> 240 ;
241 [label="Foundation_CBlock <= 0.5\nsquared_error = 888888.889\nsamples = 2\nvalue = 124666.667", fillcolor="#fcefe6"] ;
240 -> 241 ;
242 [label="squared_error = 0.0\nsamples = 1\nvalue = 126000.0", fillcolor="#fcefe6"] ;
241 -> 242 ;
243 [label="squared_error = 0.0\nsamples = 1\nvalue = 124000.0", fillcolor="#fcefe6"] ;
241 -> 243 ;
244 [label="squared_error = 0.0\nsamples = 1\nvalue = 121600.0", fillcolor="#fcf0e7"] ;
240 -> 244 ;
245 [label="BsmtFinSF1 <= 469.0\nsquared_error = 24500000.0\nsamples = 2\nvalue = 117000.0", fillcolor="#fcf0e8"] ;
231 -> 245 ;
246 [label="squared_error = 0.0\nsamples = 1\nvalue = 110000.0", fillcolor="#fcf2ea"] ;
245 -> 246 ;
247 [label="squared_error = 0.0\nsamples = 1\nvalue = 120500.0", fillcolor="#fcf0e7"] ;
245 -> 247 ;
248 [label="squared_error = 0.0\nsamples = 1\nvalue = 97000.0", fillcolor="#fdf4ee"] ;
220 -> 248 ;
249 [label="GarageArea <= 322.0\nsquared_error = 179605545.868\nsamples = 34\nvalue = 138103.636", fillcolor="#fbede2"] ;
213 -> 249 ;
250 [label="Exterior2nd_HdBoard <= 0.5\nsquared_error = 103165207.101\nsamples = 11\nvalue = 126169.231", fillcolor="#fcefe6"] ;
249 -> 250 ;
251 [label="YearRemodAdd <= 1961.5\nsquared_error = 51879600.0\nsamples = 9\nvalue = 121820.0", fillcolor="#fcf0e7"] ;
250 -> 251 ;
252 [label="LotConfig_Inside <= 0.5\nsquared_error = 16166666.667\nsamples = 3\nvalue = 112500.0", fillcolor="#fcf1e9"] ;
251 -> 252 ;
253 [label="squared_error = 0.0\nsamples = 1\nvalue = 118000.0", fillcolor="#fcf0e8"] ;
252 -> 253 ;
254 [label="MasVnrType_nan <= 0.5\nsquared_error = 1562500.0\nsamples = 2\nvalue = 109750.0", fillcolor="#fcf2ea"] ;
252 -> 254 ;
255 [label="squared_error = 0.0\nsamples = 1\nvalue = 111000.0", fillcolor="#fcf1ea"] ;
254 -> 255 ;
256 [label="squared_error = 0.0\nsamples = 1\nvalue = 108500.0", fillcolor="#fcf2ea"] ;
254 -> 256 ;
257 [label="YearBuilt <= 1979.5\nsquared_error = 14004081.633\nsamples = 6\nvalue = 125814.286", fillcolor="#fcefe6"] ;
251 -> 257 ;
258 [label="YearBuilt <= 1958.5\nsquared_error = 3722222.222\nsamples = 3\nvalue = 129333.333", fillcolor="#fceee5"] ;
257 -> 258 ;
259 [label="squared_error = 0.0\nsamples = 1\nvalue = 132000.0", fillcolor="#fbeee4"] ;
258 -> 259 ;
260 [label="BsmtHalfBath <= 1.0\nsquared_error = 250000.0\nsamples = 2\nvalue = 128000.0", fillcolor="#fceee5"] ;
258 -> 260 ;
261 [label="squared_error = 0.0\nsamples = 1\nvalue = 128500.0", fillcolor="#fceee5"] ;
260 -> 261 ;
262 [label="squared_error = 0.0\nsamples = 1\nvalue = 127500.0", fillcolor="#fcefe5"] ;
260 -> 262 ;
263 [label="TotalBsmtSF <= 933.0\nsquared_error = 5461875.0\nsamples = 3\nvalue = 123175.0", fillcolor="#fcefe6"] ;
257 -> 263 ;
264 [label="squared_error = 0.0\nsamples = 1\nvalue = 119500.0", fillcolor="#fcf0e7"] ;
263 -> 264 ;
265 [label="LotFrontage <= 62.5\nsquared_error = 1280000.0\nsamples = 2\nvalue = 124400.0", fillcolor="#fcefe6"] ;
263 -> 265 ;
266 [label="squared_error = 0.0\nsamples = 1\nvalue = 123600.0", fillcolor="#fcefe6"] ;
265 -> 266 ;
267 [label="squared_error = 0.0\nsamples = 1\nvalue = 126000.0", fillcolor="#fcefe6"] ;
265 -> 267 ;
268 [label="WoodDeckSF <= 84.0\nsquared_error = 888888.889\nsamples = 2\nvalue = 140666.667", fillcolor="#fbece2"] ;
250 -> 268 ;
269 [label="squared_error = 0.0\nsamples = 1\nvalue = 140000.0", fillcolor="#fbece2"] ;
268 -> 269 ;
270 [label="squared_error = 0.0\nsamples = 1\nvalue = 142000.0", fillcolor="#fbece1"] ;
268 -> 270 ;
271 [label="MoSold <= 6.5\nsquared_error = 126884916.753\nsamples = 23\nvalue = 143108.387", fillcolor="#fbece1"] ;
249 -> 271 ;
272 [label="YearRemodAdd <= 1970.5\nsquared_error = 37100623.583\nsamples = 14\nvalue = 138190.476", fillcolor="#fbede2"] ;
271 -> 272 ;
273 [label="SaleCondition_Abnorml <= 0.5\nsquared_error = 18437500.0\nsamples = 5\nvalue = 132500.0", fillcolor="#fbeee4"] ;
272 -> 273 ;
274 [label="BsmtFinSF1 <= 586.5\nsquared_error = 160000.0\nsamples = 2\nvalue = 129200.0", fillcolor="#fceee5"] ;
273 -> 274 ;
275 [label="squared_error = 0.0\nsamples = 1\nvalue = 130000.0", fillcolor="#fceee4"] ;
274 -> 275 ;
276 [label="squared_error = 0.0\nsamples = 1\nvalue = 129000.0", fillcolor="#fceee5"] ;
274 -> 276 ;
277 [label="LotConfig_Corner <= 0.5\nsquared_error = 500000.0\nsamples = 3\nvalue = 138000.0", fillcolor="#fbede2"] ;
273 -> 277 ;
278 [label="squared_error = 0.0\nsamples = 2\nvalue = 137500.0", fillcolor="#fbede2"] ;
277 -> 278 ;
279 [label="squared_error = 0.0\nsamples = 1\nvalue = 139000.0", fillcolor="#fbede2"] ;
277 -> 279 ;
280 [label="Id <= 1308.5\nsquared_error = 16395710.059\nsamples = 9\nvalue = 141692.308", fillcolor="#fbece1"] ;
272 -> 280 ;
281 [label="LotShape <= 3.5\nsquared_error = 11325617.284\nsamples = 7\nvalue = 139777.778", fillcolor="#fbece2"] ;
280 -> 281 ;
282 [label="BsmtExposure <= 2.0\nsquared_error = 680555.556\nsamples = 2\nvalue = 143833.333", fillcolor="#fbece1"] ;
281 -> 282 ;
283 [label="squared_error = 0.0\nsamples = 1\nvalue = 143250.0", fillcolor="#fbece1"] ;
282 -> 283 ;
284 [label="squared_error = 0.0\nsamples = 1\nvalue = 145000.0", fillcolor="#fbebe0"] ;
282 -> 284 ;
285 [label="OpenPorchSF <= 22.0\nsquared_error = 4312500.0\nsamples = 5\nvalue = 137750.0", fillcolor="#fbede2"] ;
281 -> 285 ;
286 [label="squared_error = 0.0\nsamples = 2\nvalue = 135000.0", fillcolor="#fbede3"] ;
285 -> 286 ;
287 [label="LotFrontage <= 47.5\nsquared_error = 796875.0\nsamples = 3\nvalue = 139125.0", fillcolor="#fbede2"] ;
285 -> 287 ;
288 [label="squared_error = 0.0\nsamples = 1\nvalue = 140000.0", fillcolor="#fbece2"] ;
287 -> 288 ;
289 [label="Neighborhood_Sawyer <= 0.5\nsquared_error = 62500.0\nsamples = 2\nvalue = 138250.0", fillcolor="#fbede2"] ;
287 -> 289 ;
290 [label="squared_error = 0.0\nsamples = 1\nvalue = 138000.0", fillcolor="#fbede2"] ;
289 -> 290 ;
291 [label="squared_error = 0.0\nsamples = 1\nvalue = 138500.0", fillcolor="#fbede2"] ;
289 -> 291 ;
292 [label="GarageType_Basment <= 0.5\nsquared_error = 1000000.0\nsamples = 2\nvalue = 146000.0", fillcolor="#fbebe0"] ;
280 -> 292 ;
293 [label="squared_error = 0.0\nsamples = 1\nvalue = 147000.0", fillcolor="#fbebe0"] ;
292 -> 293 ;
294 [label="squared_error = 0.0\nsamples = 1\nvalue = 145000.0", fillcolor="#fbebe0"] ;
292 -> 294 ;
295 [label="HeatingQC <= 4.0\nsquared_error = 157982064.0\nsamples = 9\nvalue = 153436.0", fillcolor="#fbeade"] ;
271 -> 295 ;
296 [label="MSSubClass_90 <= 0.5\nsquared_error = 28494722.222\nsamples = 6\nvalue = 144643.333", fillcolor="#fbece0"] ;
295 -> 296 ;
297 [label="LotConfig_Inside <= 0.5\nsquared_error = 7401875.0\nsamples = 4\nvalue = 147975.0", fillcolor="#fbebdf"] ;
296 -> 297 ;
298 [label="BsmtQual <= 3.5\nsquared_error = 302500.0\nsamples = 2\nvalue = 150450.0", fillcolor="#fbeadf"] ;
297 -> 298 ;
299 [label="squared_error = 0.0\nsamples = 1\nvalue = 149900.0", fillcolor="#fbebdf"] ;
298 -> 299 ;
300 [label="squared_error = 0.0\nsamples = 1\nvalue = 151000.0", fillcolor="#fbeadf"] ;
298 -> 300 ;
301 [label="GarageCars <= 1.5\nsquared_error = 2250000.0\nsamples = 2\nvalue = 145500.0", fillcolor="#fbebe0"] ;
297 -> 301 ;
302 [label="squared_error = 0.0\nsamples = 1\nvalue = 144000.0", fillcolor="#fbece1"] ;
301 -> 302 ;
303 [label="squared_error = 0.0\nsamples = 1\nvalue = 147000.0", fillcolor="#fbebe0"] ;
301 -> 303 ;
304 [label="MasVnrType_nan <= 0.5\nsquared_error = 4080400.0\nsamples = 2\nvalue = 137980.0", fillcolor="#fbede2"] ;
296 -> 304 ;
305 [label="squared_error = 0.0\nsamples = 1\nvalue = 140000.0", fillcolor="#fbece2"] ;
304 -> 305 ;
306 [label="squared_error = 0.0\nsamples = 1\nvalue = 135960.0", fillcolor="#fbede3"] ;
304 -> 306 ;
307 [label="Neighborhood_ClearCr <= 0.5\nsquared_error = 62296875.0\nsamples = 3\nvalue = 166625.0", fillcolor="#fae8da"] ;
295 -> 307 ;
308 [label="GarageYrBlt <= 1937.5\nsquared_error = 3555555.556\nsamples = 2\nvalue = 162166.667", fillcolor="#fae8dc"] ;
307 -> 308 ;
309 [label="squared_error = 0.0\nsamples = 1\nvalue = 163500.0", fillcolor="#fae8db"] ;
308 -> 309 ;
310 [label="squared_error = 0.0\nsamples = 1\nvalue = 159500.0", fillcolor="#fae9dc"] ;
308 -> 310 ;
311 [label="squared_error = 0.0\nsamples = 1\nvalue = 180000.0", fillcolor="#fae5d7"] ;
307 -> 311 ;
312 [label="GarageArea <= 291.0\nsquared_error = 353324967.728\nsamples = 104\nvalue = 145884.058", fillcolor="#fbebe0"] ;
2 -> 312 ;
313 [label="YearRemodAdd <= 2005.5\nsquared_error = 369591938.776\nsamples = 18\nvalue = 124314.286", fillcolor="#fcefe6"] ;
312 -> 313 ;
314 [label="YearRemodAdd <= 1975.0\nsquared_error = 104681074.38\nsamples = 14\nvalue = 131172.727", fillcolor="#fbeee4"] ;
313 -> 314 ;
315 [label="LotFrontage <= 69.0\nsquared_error = 53884843.75\nsamples = 10\nvalue = 126462.5", fillcolor="#fcefe5"] ;
314 -> 315 ;
316 [label="BldgType_2fmCon <= 0.5\nsquared_error = 4550612.245\nsamples = 3\nvalue = 119828.571", fillcolor="#fcf0e7"] ;
315 -> 316 ;
317 [label="MasVnrType_BrkFace <= 0.5\nsquared_error = 108888.889\nsamples = 2\nvalue = 118966.667", fillcolor="#fcf0e8"] ;
316 -> 317 ;
318 [label="squared_error = 0.0\nsamples = 1\nvalue = 118500.0", fillcolor="#fcf0e8"] ;
317 -> 318 ;
319 [label="squared_error = 0.0\nsamples = 1\nvalue = 119200.0", fillcolor="#fcf0e7"] ;
317 -> 319 ;
320 [label="squared_error = 0.0\nsamples = 1\nvalue = 125000.0", fillcolor="#fcefe6"] ;
316 -> 320 ;
321 [label="LotFrontage <= 79.0\nsquared_error = 31403950.617\nsamples = 7\nvalue = 131622.222", fillcolor="#fbeee4"] ;
315 -> 321 ;
322 [label="BsmtUnfSF <= 596.5\nsquared_error = 2413877.551\nsamples = 5\nvalue = 134442.857", fillcolor="#fbede3"] ;
321 -> 322 ;
323 [label="RoofStyle_Gable <= 0.5\nsquared_error = 666666.667\nsamples = 3\nvalue = 136000.0", fillcolor="#fbede3"] ;
322 -> 323 ;
324 [label="Exterior1st_Wd Sdng <= 0.5\nsquared_error = 250000.0\nsamples = 2\nvalue = 135500.0", fillcolor="#fbede3"] ;
323 -> 324 ;
325 [label="squared_error = 0.0\nsamples = 1\nvalue = 136000.0", fillcolor="#fbede3"] ;
324 -> 325 ;
326 [label="squared_error = 0.0\nsamples = 1\nvalue = 135000.0", fillcolor="#fbede3"] ;
324 -> 326 ;
327 [label="squared_error = 0.0\nsamples = 1\nvalue = 137000.0", fillcolor="#fbede3"] ;
323 -> 327 ;
328 [label="GarageArea <= 265.0\nsquared_error = 541875.0\nsamples = 2\nvalue = 133275.0", fillcolor="#fbeee4"] ;
322 -> 328 ;
329 [label="squared_error = 0.0\nsamples = 1\nvalue = 132000.0", fillcolor="#fbeee4"] ;
328 -> 329 ;
330 [label="squared_error = 0.0\nsamples = 1\nvalue = 133700.0", fillcolor="#fbede3"] ;
328 -> 330 ;
331 [label="MSSubClass_20 <= 0.5\nsquared_error = 7562500.0\nsamples = 2\nvalue = 121750.0", fillcolor="#fcf0e7"] ;
321 -> 331 ;
332 [label="squared_error = 0.0\nsamples = 1\nvalue = 119000.0", fillcolor="#fcf0e8"] ;
331 -> 332 ;
333 [label="squared_error = 0.0\nsamples = 1\nvalue = 124500.0", fillcolor="#fcefe6"] ;
331 -> 333 ;
334 [label="Id <= 87.0\nsquared_error = 23205555.556\nsamples = 4\nvalue = 143733.333", fillcolor="#fbece1"] ;
314 -> 334 ;
335 [label="squared_error = 0.0\nsamples = 1\nvalue = 154000.0", fillcolor="#fbeade"] ;
334 -> 335 ;
336 [label="Exterior2nd_Plywood <= 0.5\nsquared_error = 2549600.0\nsamples = 3\nvalue = 141680.0", fillcolor="#fbece1"] ;
334 -> 336 ;
337 [label="WoodDeckSF <= 195.0\nsquared_error = 568888.889\nsamples = 2\nvalue = 140466.667", fillcolor="#fbece2"] ;
336 -> 337 ;
338 [label="squared_error = 0.0\nsamples = 1\nvalue = 141000.0", fillcolor="#fbece1"] ;
337 -> 338 ;
339 [label="squared_error = 0.0\nsamples = 1\nvalue = 139400.0", fillcolor="#fbece2"] ;
337 -> 339 ;
340 [label="squared_error = 0.0\nsamples = 1\nvalue = 143500.0", fillcolor="#fbece1"] ;
336 -> 340 ;
341 [label="Condition1_Feedr <= 0.5\nsquared_error = 536055555.556\nsamples = 4\nvalue = 99166.667", fillcolor="#fdf4ed"] ;
313 -> 341 ;
342 [label="YrSold <= 2009.5\nsquared_error = 94140000.0\nsamples = 3\nvalue = 89600.0", fillcolor="#fdf5f0"] ;
341 -> 342 ;
343 [label="BsmtFinType1 <= 3.0\nsquared_error = 62500.0\nsamples = 2\nvalue = 84750.0", fillcolor="#fdf6f1"] ;
342 -> 343 ;
344 [label="squared_error = 0.0\nsamples = 1\nvalue = 84500.0", fillcolor="#fdf6f1"] ;
343 -> 344 ;
345 [label="squared_error = 0.0\nsamples = 1\nvalue = 85000.0", fillcolor="#fdf6f1"] ;
343 -> 345 ;
346 [label="squared_error = 0.0\nsamples = 1\nvalue = 109000.0", fillcolor="#fcf2ea"] ;
342 -> 346 ;
347 [label="squared_error = 0.0\nsamples = 1\nvalue = 147000.0", fillcolor="#fbebe0"] ;
341 -> 347 ;
348 [label="YearBuilt <= 1937.5\nsquared_error = 241203379.523\nsamples = 86\nvalue = 150107.51", fillcolor="#fbebdf"] ;
312 -> 348 ;
349 [label="Exterior1st_MetalSd <= 0.5\nsquared_error = 44765600.0\nsamples = 4\nvalue = 118080.0", fillcolor="#fcf0e8"] ;
348 -> 349 ;
350 [label="HeatingQC <= 4.0\nsquared_error = 5555555.556\nsamples = 2\nvalue = 123333.333", fillcolor="#fcefe6"] ;
349 -> 350 ;
351 [label="squared_error = 0.0\nsamples = 1\nvalue = 125000.0", fillcolor="#fcefe6"] ;
350 -> 351 ;
352 [label="squared_error = 0.0\nsamples = 1\nvalue = 120000.0", fillcolor="#fcf0e7"] ;
350 -> 352 ;
353 [label="Fence <= 1.5\nsquared_error = 90000.0\nsamples = 2\nvalue = 110200.0", fillcolor="#fcf2ea"] ;
349 -> 353 ;
354 [label="squared_error = 0.0\nsamples = 1\nvalue = 109900.0", fillcolor="#fcf2ea"] ;
353 -> 354 ;
355 [label="squared_error = 0.0\nsamples = 1\nvalue = 110500.0", fillcolor="#fcf2ea"] ;
353 -> 355 ;
356 [label="TotalBsmtSF <= 1123.0\nsquared_error = 209808853.516\nsamples = 82\nvalue = 151267.928", fillcolor="#fbeadf"] ;
348 -> 356 ;
357 [label="MasVnrArea <= 72.0\nsquared_error = 138568418.41\nsamples = 41\nvalue = 145962.649", fillcolor="#fbebe0"] ;
356 -> 357 ;
358 [label="YearRemodAdd <= 1999.0\nsquared_error = 105327924.371\nsamples = 28\nvalue = 142152.885", fillcolor="#fbece1"] ;
357 -> 358 ;
359 [label="TotRmsAbvGrd <= 5.5\nsquared_error = 84288487.654\nsamples = 22\nvalue = 138211.111", fillcolor="#fbede2"] ;
358 -> 359 ;
360 [label="GarageType_Attchd <= 0.5\nsquared_error = 81553367.347\nsamples = 8\nvalue = 131435.714", fillcolor="#fbeee4"] ;
359 -> 360 ;
361 [label="squared_error = 0.0\nsamples = 1\nvalue = 107000.0", fillcolor="#fcf2eb"] ;
360 -> 361 ;
362 [label="Fireplaces <= 1.5\nsquared_error = 38362455.621\nsamples = 7\nvalue = 133315.385", fillcolor="#fbeee4"] ;
360 -> 362 ;
363 [label="FullBath <= 1.5\nsquared_error = 6265495.868\nsamples = 6\nvalue = 130863.636", fillcolor="#fbeee4"] ;
362 -> 363 ;
364 [label="MiscFeature_Shed <= 0.5\nsquared_error = 2482142.857\nsamples = 4\nvalue = 132500.0", fillcolor="#fbeee4"] ;
363 -> 364 ;
365 [label="ExterCond <= 3.5\nsquared_error = 513888.889\nsamples = 3\nvalue = 133083.333", fillcolor="#fbeee4"] ;
364 -> 365 ;
366 [label="TotalBsmtSF <= 1052.0\nsquared_error = 140625.0\nsamples = 2\nvalue = 132625.0", fillcolor="#fbeee4"] ;
365 -> 366 ;
367 [label="squared_error = 0.0\nsamples = 1\nvalue = 133000.0", fillcolor="#fbeee4"] ;
366 -> 367 ;
368 [label="squared_error = 0.0\nsamples = 1\nvalue = 132250.0", fillcolor="#fbeee4"] ;
366 -> 368 ;
369 [label="squared_error = 0.0\nsamples = 1\nvalue = 134000.0", fillcolor="#fbede3"] ;
365 -> 369 ;
370 [label="squared_error = 0.0\nsamples = 1\nvalue = 129000.0", fillcolor="#fceee5"] ;
364 -> 370 ;
371 [label="squared_error = 0.0\nsamples = 2\nvalue = 128000.0", fillcolor="#fceee5"] ;
363 -> 371 ;
372 [label="squared_error = 0.0\nsamples = 1\nvalue = 146800.0", fillcolor="#fbebe0"] ;
362 -> 372 ;
373 [label="BsmtFinType1 <= 4.5\nsquared_error = 38226074.38\nsamples = 14\nvalue = 142522.727", fillcolor="#fbece1"] ;
359 -> 373 ;
374 [label="Exterior2nd_HdBoard <= 0.5\nsquared_error = 11080347.222\nsamples = 8\nvalue = 138041.667", fillcolor="#fbede2"] ;
373 -> 374 ;
375 [label="Foundation_PConc <= 0.5\nsquared_error = 4826666.667\nsamples = 6\nvalue = 139566.667", fillcolor="#fbece2"] ;
374 -> 375 ;
376 [label="BsmtFinSF1 <= 905.0\nsquared_error = 1278593.75\nsamples = 5\nvalue = 138887.5", fillcolor="#fbede2"] ;
375 -> 376 ;
377 [label="YearRemodAdd <= 1961.0\nsquared_error = 530612.245\nsamples = 4\nvalue = 139228.571", fillcolor="#fbece2"] ;
376 -> 377 ;
378 [label="squared_error = 0.0\nsamples = 1\nvalue = 141000.0", fillcolor="#fbece1"] ;
377 -> 378 ;
379 [label="YearBuilt <= 1963.5\nsquared_error = 8888.889\nsamples = 3\nvalue = 138933.333", fillcolor="#fbede2"] ;
377 -> 379 ;
380 [label="squared_error = 0.0\nsamples = 2\nvalue = 139000.0", fillcolor="#fbede2"] ;
379 -> 380 ;
381 [label="squared_error = 0.0\nsamples = 1\nvalue = 138800.0", fillcolor="#fbede2"] ;
379 -> 381 ;
382 [label="squared_error = 0.0\nsamples = 1\nvalue = 136500.0", fillcolor="#fbede3"] ;
376 -> 382 ;
383 [label="squared_error = 0.0\nsamples = 1\nvalue = 145000.0", fillcolor="#fbebe0"] ;
375 -> 383 ;
384 [label="FireplaceQu <= 1.0\nsquared_error = 1933888.889\nsamples = 2\nvalue = 133466.667", fillcolor="#fbeee4"] ;
374 -> 384 ;
385 [label="squared_error = 0.0\nsamples = 1\nvalue = 131500.0", fillcolor="#fbeee4"] ;
384 -> 385 ;
386 [label="squared_error = 0.0\nsamples = 1\nvalue = 134450.0", fillcolor="#fbede3"] ;
384 -> 386 ;
387 [label="TotalBsmtSF <= 1032.0\nsquared_error = 17790000.0\nsamples = 6\nvalue = 147900.0", fillcolor="#fbebdf"] ;
373 -> 387 ;
388 [label="LotArea <= 8720.0\nsquared_error = 562500.0\nsamples = 2\nvalue = 143250.0", fillcolor="#fbece1"] ;
387 -> 388 ;
389 [label="squared_error = 0.0\nsamples = 1\nvalue = 142500.0", fillcolor="#fbece1"] ;
388 -> 389 ;
390 [label="squared_error = 0.0\nsamples = 1\nvalue = 144000.0", fillcolor="#fbece1"] ;
388 -> 390 ;
391 [label="BsmtExposure <= 2.0\nsquared_error = 5250000.0\nsamples = 4\nvalue = 151000.0", fillcolor="#fbeadf"] ;
387 -> 391 ;
392 [label="LotConfig_Inside <= 0.5\nsquared_error = 1125000.0\nsamples = 3\nvalue = 152500.0", fillcolor="#fbeade"] ;
391 -> 392 ;
393 [label="KitchenQual <= 3.5\nsquared_error = 250000.0\nsamples = 2\nvalue = 151500.0", fillcolor="#fbeade"] ;
392 -> 393 ;
394 [label="squared_error = 0.0\nsamples = 1\nvalue = 151000.0", fillcolor="#fbeadf"] ;
393 -> 394 ;
395 [label="squared_error = 0.0\nsamples = 1\nvalue = 152000.0", fillcolor="#fbeade"] ;
393 -> 395 ;
396 [label="squared_error = 0.0\nsamples = 1\nvalue = 153500.0", fillcolor="#fbeade"] ;
392 -> 396 ;
397 [label="squared_error = 0.0\nsamples = 1\nvalue = 148000.0", fillcolor="#fbebdf"] ;
391 -> 397 ;
398 [label="MoSold <= 3.5\nsquared_error = 39048115.234\nsamples = 6\nvalue = 151021.875", fillcolor="#fbeadf"] ;
358 -> 398 ;
399 [label="squared_error = 0.0\nsamples = 1\nvalue = 140000.0", fillcolor="#fbece2"] ;
398 -> 399 ;
400 [label="OpenPorchSF <= 18.0\nsquared_error = 13555532.544\nsamples = 5\nvalue = 153565.385", fillcolor="#fbeade"] ;
398 -> 400 ;
401 [label="LotFrontage <= 72.5\nsquared_error = 176938.776\nsamples = 2\nvalue = 150264.286", fillcolor="#fbebdf"] ;
400 -> 401 ;
402 [label="squared_error = 0.0\nsamples = 1\nvalue = 149900.0", fillcolor="#fbebdf"] ;
401 -> 402 ;
403 [label="squared_error = 0.0\nsamples = 1\nvalue = 150750.0", fillcolor="#fbeadf"] ;
401 -> 403 ;
404 [label="Exterior1st_HdBoard <= 0.5\nsquared_error = 1618055.556\nsamples = 3\nvalue = 157416.667", fillcolor="#fbe9dd"] ;
400 -> 404 ;
405 [label="GarageType_Attchd <= 0.5\nsquared_error = 888888.889\nsamples = 2\nvalue = 156333.333", fillcolor="#fbe9dd"] ;
404 -> 405 ;
406 [label="squared_error = 0.0\nsamples = 1\nvalue = 155000.0", fillcolor="#fbeade"] ;
405 -> 406 ;
407 [label="squared_error = 0.0\nsamples = 1\nvalue = 157000.0", fillcolor="#fbe9dd"] ;
405 -> 407 ;
408 [label="squared_error = 0.0\nsamples = 1\nvalue = 158500.0", fillcolor="#fae9dd"] ;
404 -> 408 ;
409 [label="LotArea <= 8193.0\nsquared_error = 114724187.478\nsamples = 13\nvalue = 153886.96", fillcolor="#fbeade"] ;
357 -> 409 ;
410 [label="Fence <= 1.0\nsquared_error = 138207736.56\nsamples = 3\nvalue = 139334.8", fillcolor="#fbece2"] ;
409 -> 410 ;
411 [label="squared_error = 0.0\nsamples = 1\nvalue = 153337.0", fillcolor="#fbeade"] ;
410 -> 411 ;
412 [label="GarageYrBlt <= 1969.5\nsquared_error = 12500000.0\nsamples = 2\nvalue = 130000.0", fillcolor="#fceee4"] ;
410 -> 412 ;
413 [label="squared_error = 0.0\nsamples = 1\nvalue = 132500.0", fillcolor="#fbeee4"] ;
412 -> 413 ;
414 [label="squared_error = 0.0\nsamples = 1\nvalue = 125000.0", fillcolor="#fcefe6"] ;
412 -> 414 ;
415 [label="Neighborhood_Mitchel <= 0.5\nsquared_error = 42676625.0\nsamples = 10\nvalue = 157525.0", fillcolor="#fbe9dd"] ;
409 -> 415 ;
416 [label="GarageYrBlt <= 1968.0\nsquared_error = 18413892.734\nsamples = 9\nvalue = 155341.176", fillcolor="#fbeadd"] ;
415 -> 416 ;
417 [label="GarageArea <= 489.5\nsquared_error = 4879444.444\nsamples = 5\nvalue = 158433.333", fillcolor="#fae9dd"] ;
416 -> 417 ;
418 [label="MasVnrArea <= 654.0\nsquared_error = 555.556\nsamples = 3\nvalue = 159983.333", fillcolor="#fae9dc"] ;
417 -> 418 ;
419 [label="squared_error = 0.0\nsamples = 2\nvalue = 160000.0", fillcolor="#fae9dc"] ;
418 -> 419 ;
420 [label="squared_error = 0.0\nsamples = 1\nvalue = 159950.0", fillcolor="#fae9dc"] ;
418 -> 420 ;
421 [label="Exterior2nd_MetalSd <= 0.5\nsquared_error = 222222.222\nsamples = 2\nvalue = 155333.333", fillcolor="#fbeadd"] ;
417 -> 421 ;
422 [label="squared_error = 0.0\nsamples = 1\nvalue = 155000.0", fillcolor="#fbeade"] ;
421 -> 422 ;
423 [label="squared_error = 0.0\nsamples = 1\nvalue = 156000.0", fillcolor="#fbeadd"] ;
421 -> 423 ;
424 [label="Neighborhood_NAmes <= 0.5\nsquared_error = 10782343.75\nsamples = 4\nvalue = 151862.5", fillcolor="#fbeade"] ;
416 -> 424 ;
425 [label="FullBath <= 1.5\nsquared_error = 2250000.0\nsamples = 2\nvalue = 153500.0", fillcolor="#fbeade"] ;
424 -> 425 ;
426 [label="squared_error = 0.0\nsamples = 1\nvalue = 155000.0", fillcolor="#fbeade"] ;
425 -> 426 ;
427 [label="squared_error = 0.0\nsamples = 1\nvalue = 152000.0", fillcolor="#fbeade"] ;
425 -> 427 ;
428 [label="BsmtUnfSF <= 415.0\nsquared_error = 4202500.0\nsamples = 2\nvalue = 146950.0", fillcolor="#fbebe0"] ;
424 -> 428 ;
429 [label="squared_error = 0.0\nsamples = 1\nvalue = 144900.0", fillcolor="#fbebe0"] ;
428 -> 429 ;
430 [label="squared_error = 0.0\nsamples = 1\nvalue = 149000.0", fillcolor="#fbebdf"] ;
428 -> 430 ;
431 [label="squared_error = 0.0\nsamples = 1\nvalue = 169900.0", fillcolor="#fae7d9"] ;
415 -> 431 ;
432 [label="YearBuilt <= 1972.5\nsquared_error = 219359290.513\nsamples = 41\nvalue = 157964.754", fillcolor="#fae9dd"] ;
356 -> 432 ;
433 [label="MoSold <= 11.5\nsquared_error = 211005953.72\nsamples = 25\nvalue = 150598.529", fillcolor="#fbeadf"] ;
432 -> 433 ;
434 [label="1stFlrSF <= 1247.5\nsquared_error = 132982442.608\nsamples = 24\nvalue = 152174.242", fillcolor="#fbeade"] ;
433 -> 434 ;
435 [label="OpenPorchSF <= 120.0\nsquared_error = 117049513.889\nsamples = 14\nvalue = 145375.0", fillcolor="#fbebe0"] ;
434 -> 435 ;
436 [label="LotArea <= 10677.5\nsquared_error = 69640449.827\nsamples = 13\nvalue = 143638.235", fillcolor="#fbece1"] ;
435 -> 436 ;
437 [label="Id <= 849.5\nsquared_error = 36674225.0\nsamples = 9\nvalue = 138395.0", fillcolor="#fbede2"] ;
436 -> 437 ;
438 [label="YrSold <= 2009.0\nsquared_error = 9164335.938\nsamples = 7\nvalue = 140931.25", fillcolor="#fbece1"] ;
437 -> 438 ;
439 [label="MasVnrArea <= 182.0\nsquared_error = 2315612.245\nsamples = 6\nvalue = 139921.429", fillcolor="#fbece2"] ;
438 -> 439 ;
440 [label="GarageYrBlt <= 1971.5\nsquared_error = 858680.556\nsamples = 5\nvalue = 139408.333", fillcolor="#fbece2"] ;
439 -> 440 ;
441 [label="Electrical_SBrkr <= 0.5\nsquared_error = 156400.0\nsamples = 4\nvalue = 139790.0", fillcolor="#fbece2"] ;
440 -> 441 ;
442 [label="squared_error = 0.0\nsamples = 1\nvalue = 139000.0", fillcolor="#fbede2"] ;
441 -> 442 ;
443 [label="RoofStyle_Gable <= 0.5\nsquared_error = 468.75\nsamples = 3\nvalue = 139987.5", fillcolor="#fbece2"] ;
441 -> 443 ;
444 [label="squared_error = 0.0\nsamples = 2\nvalue = 140000.0", fillcolor="#fbece2"] ;
443 -> 444 ;
445 [label="squared_error = 0.0\nsamples = 1\nvalue = 139950.0", fillcolor="#fbece2"] ;
443 -> 445 ;
446 [label="squared_error = 0.0\nsamples = 1\nvalue = 137500.0", fillcolor="#fbede2"] ;
440 -> 446 ;
447 [label="squared_error = 0.0\nsamples = 1\nvalue = 143000.0", fillcolor="#fbece1"] ;
439 -> 447 ;
448 [label="squared_error = 0.0\nsamples = 1\nvalue = 148000.0", fillcolor="#fbebdf"] ;
438 -> 448 ;
449 [label="Exterior2nd_Plywood <= 0.5\nsquared_error = 18062500.0\nsamples = 2\nvalue = 128250.0", fillcolor="#fceee5"] ;
437 -> 449 ;
450 [label="squared_error = 0.0\nsamples = 1\nvalue = 124000.0", fillcolor="#fcefe6"] ;
449 -> 450 ;
451 [label="squared_error = 0.0\nsamples = 1\nvalue = 132500.0", fillcolor="#fbeee4"] ;
449 -> 451 ;
452 [label="SaleType_COD <= 0.5\nsquared_error = 21356326.531\nsamples = 4\nvalue = 151128.571", fillcolor="#fbeadf"] ;
436 -> 452 ;
453 [label="Fireplaces <= 1.5\nsquared_error = 8712500.0\nsamples = 3\nvalue = 152650.0", fillcolor="#fbeade"] ;
452 -> 453 ;
454 [label="Neighborhood_Mitchel <= 0.5\nsquared_error = 3380000.0\nsamples = 2\nvalue = 155300.0", fillcolor="#fbeadd"] ;
453 -> 454 ;
455 [label="squared_error = 0.0\nsamples = 1\nvalue = 154000.0", fillcolor="#fbeade"] ;
454 -> 455 ;
456 [label="squared_error = 0.0\nsamples = 1\nvalue = 157900.0", fillcolor="#fae9dd"] ;
454 -> 456 ;
457 [label="squared_error = 0.0\nsamples = 1\nvalue = 150000.0", fillcolor="#fbebdf"] ;
453 -> 457 ;
458 [label="squared_error = 0.0\nsamples = 1\nvalue = 142000.0", fillcolor="#fbece1"] ;
452 -> 458 ;
459 [label="squared_error = 0.0\nsamples = 1\nvalue = 174900.0", fillcolor="#fae6d8"] ;
435 -> 459 ;
460 [label="LotArea <= 8666.0\nsquared_error = 30055555.556\nsamples = 10\nvalue = 160333.333", fillcolor="#fae9dc"] ;
434 -> 460 ;
461 [label="BsmtFullBath <= 0.5\nsquared_error = 16000000.0\nsamples = 2\nvalue = 149000.0", fillcolor="#fbebdf"] ;
460 -> 461 ;
462 [label="squared_error = 0.0\nsamples = 1\nvalue = 153000.0", fillcolor="#fbeade"] ;
461 -> 462 ;
463 [label="squared_error = 0.0\nsamples = 1\nvalue = 145000.0", fillcolor="#fbebe0"] ;
461 -> 463 ;
464 [label="GarageCars <= 1.5\nsquared_error = 9417159.763\nsamples = 8\nvalue = 162076.923", fillcolor="#fae8dc"] ;
460 -> 464 ;
465 [label="1stFlrSF <= 1276.5\nsquared_error = 1187500.0\nsamples = 3\nvalue = 158250.0", fillcolor="#fae9dd"] ;
464 -> 465 ;
466 [label="squared_error = 0.0\nsamples = 1\nvalue = 160000.0", fillcolor="#fae9dc"] ;
465 -> 466 ;
467 [label="GarageFinish <= 1.5\nsquared_error = 222222.222\nsamples = 2\nvalue = 157666.667", fillcolor="#fbe9dd"] ;
465 -> 467 ;
468 [label="squared_error = 0.0\nsamples = 1\nvalue = 157000.0", fillcolor="#fbe9dd"] ;
467 -> 468 ;
469 [label="squared_error = 0.0\nsamples = 1\nvalue = 158000.0", fillcolor="#fae9dd"] ;
467 -> 469 ;
470 [label="BsmtFinSF1 <= 679.5\nsquared_error = 3672839.506\nsamples = 5\nvalue = 163777.778", fillcolor="#fae8db"] ;
464 -> 470 ;
471 [label="GarageYrBlt <= 1964.0\nsquared_error = 275510.204\nsamples = 3\nvalue = 162785.714", fillcolor="#fae8db"] ;
470 -> 471 ;
472 [label="squared_error = 0.0\nsamples = 2\nvalue = 163000.0", fillcolor="#fae8db"] ;
471 -> 472 ;
473 [label="squared_error = 0.0\nsamples = 1\nvalue = 161500.0", fillcolor="#fae9dc"] ;
471 -> 473 ;
474 [label="TotRmsAbvGrd <= 5.5\nsquared_error = 62500.0\nsamples = 2\nvalue = 167250.0", fillcolor="#fae8da"] ;
470 -> 474 ;
475 [label="squared_error = 0.0\nsamples = 1\nvalue = 167000.0", fillcolor="#fae8da"] ;
474 -> 475 ;
476 [label="squared_error = 0.0\nsamples = 1\nvalue = 167500.0", fillcolor="#fae7da"] ;
474 -> 476 ;
477 [label="squared_error = 0.0\nsamples = 1\nvalue = 98600.0", fillcolor="#fdf4ed"] ;
433 -> 477 ;
478 [label="TotRmsAbvGrd <= 5.5\nsquared_error = 75505377.229\nsamples = 16\nvalue = 167240.741", fillcolor="#fae8da"] ;
432 -> 478 ;
479 [label="GarageFinish <= 2.5\nsquared_error = 26743055.556\nsamples = 6\nvalue = 160416.667", fillcolor="#fae9dc"] ;
478 -> 479 ;
480 [label="YearRemodAdd <= 1999.0\nsquared_error = 5090909.091\nsamples = 5\nvalue = 159000.0", fillcolor="#fae9dc"] ;
479 -> 480 ;
481 [label="Fireplaces <= 0.5\nsquared_error = 2222222.222\nsamples = 2\nvalue = 160666.667", fillcolor="#fae9dc"] ;
480 -> 481 ;
482 [label="squared_error = 0.0\nsamples = 1\nvalue = 164000.0", fillcolor="#fae8db"] ;
481 -> 482 ;
483 [label="squared_error = 0.0\nsamples = 1\nvalue = 160000.0", fillcolor="#fae9dc"] ;
481 -> 483 ;
484 [label="LotArea <= 9268.0\nsquared_error = 1200000.0\nsamples = 3\nvalue = 157000.0", fillcolor="#fbe9dd"] ;
480 -> 484 ;
485 [label="squared_error = 0.0\nsamples = 1\nvalue = 155000.0", fillcolor="#fbeade"] ;
484 -> 485 ;
486 [label="GarageArea <= 507.5\nsquared_error = 250000.0\nsamples = 2\nvalue = 157500.0", fillcolor="#fbe9dd"] ;
484 -> 486 ;
487 [label="squared_error = 0.0\nsamples = 1\nvalue = 157000.0", fillcolor="#fbe9dd"] ;
486 -> 487 ;
488 [label="squared_error = 0.0\nsamples = 1\nvalue = 158000.0", fillcolor="#fae9dd"] ;
486 -> 488 ;
489 [label="squared_error = 0.0\nsamples = 1\nvalue = 176000.0", fillcolor="#fae6d8"] ;
479 -> 489 ;
490 [label="Exterior2nd_Plywood <= 0.5\nsquared_error = 47457333.333\nsamples = 10\nvalue = 172700.0", fillcolor="#fae7d9"] ;
478 -> 490 ;
491 [label="MoSold <= 5.5\nsquared_error = 17975555.556\nsamples = 7\nvalue = 177300.0", fillcolor="#fae6d7"] ;
490 -> 491 ;
492 [label="OpenPorchSF <= 11.0\nsquared_error = 5062500.0\nsamples = 2\nvalue = 183750.0", fillcolor="#fae5d5"] ;
491 -> 492 ;
493 [label="squared_error = 0.0\nsamples = 1\nvalue = 181500.0", fillcolor="#fae5d6"] ;
492 -> 493 ;
494 [label="squared_error = 0.0\nsamples = 1\nvalue = 186000.0", fillcolor="#f9e4d5"] ;
492 -> 494 ;
495 [label="TotalBsmtSF <= 1260.0\nsquared_error = 6382448.98\nsamples = 5\nvalue = 175457.143", fillcolor="#fae6d8"] ;
491 -> 495 ;
496 [label="MoSold <= 8.0\nsquared_error = 1500000.0\nsamples = 3\nvalue = 174000.0", fillcolor="#fae6d8"] ;
495 -> 496 ;
497 [label="squared_error = 0.0\nsamples = 2\nvalue = 173000.0", fillcolor="#fae6d8"] ;
496 -> 497 ;
498 [label="squared_error = 0.0\nsamples = 1\nvalue = 175500.0", fillcolor="#fae6d8"] ;
496 -> 498 ;
499 [label="Exterior2nd_VinylSd <= 0.5\nsquared_error = 10000.0\nsamples = 2\nvalue = 179100.0", fillcolor="#fae5d7"] ;
495 -> 499 ;
500 [label="squared_error = 0.0\nsamples = 1\nvalue = 179200.0", fillcolor="#fae5d7"] ;
499 -> 500 ;
501 [label="squared_error = 0.0\nsamples = 1\nvalue = 179000.0", fillcolor="#fae5d7"] ;
499 -> 501 ;
502 [label="GrLivArea <= 1255.5\nsquared_error = 12330000.0\nsamples = 3\nvalue = 165800.0", fillcolor="#fae8db"] ;
490 -> 502 ;
503 [label="squared_error = 0.0\nsamples = 1\nvalue = 162500.0", fillcolor="#fae8db"] ;
502 -> 503 ;
504 [label="Fence <= 1.5\nsquared_error = 2880000.0\nsamples = 2\nvalue = 169100.0", fillcolor="#fae7da"] ;
502 -> 504 ;
505 [label="squared_error = 0.0\nsamples = 1\nvalue = 167900.0", fillcolor="#fae7da"] ;
504 -> 505 ;
506 [label="squared_error = 0.0\nsamples = 1\nvalue = 171500.0", fillcolor="#fae7d9"] ;
504 -> 506 ;
507 [label="1stFlrSF <= 1790.0\nsquared_error = 2001725135.17\nsamples = 199\nvalue = 170311.862", fillcolor="#fae7d9"] ;
1 -> 507 ;
508 [label="GarageCars <= 1.5\nsquared_error = 1329250075.263\nsamples = 187\nvalue = 165560.964", fillcolor="#fae8db"] ;
507 -> 508 ;
509 [label="BsmtFinSF1 <= 221.0\nsquared_error = 966346191.948\nsamples = 59\nvalue = 142237.149", fillcolor="#fbece1"] ;
508 -> 509 ;
510 [label="CentralAir <= 0.5\nsquared_error = 431191969.165\nsamples = 37\nvalue = 129989.735", fillcolor="#fceee4"] ;
509 -> 510 ;
511 [label="TotalBsmtSF <= 606.0\nsquared_error = 310421232.639\nsamples = 13\nvalue = 114529.167", fillcolor="#fcf1e9"] ;
510 -> 511 ;
512 [label="BsmtFinType2 <= 0.5\nsquared_error = 80693877.551\nsamples = 3\nvalue = 93142.857", fillcolor="#fdf5ef"] ;
511 -> 512 ;
513 [label="KitchenAbvGr <= 1.5\nsquared_error = 960000.0\nsamples = 2\nvalue = 98800.0", fillcolor="#fdf4ed"] ;
512 -> 513 ;
514 [label="squared_error = 0.0\nsamples = 1\nvalue = 98000.0", fillcolor="#fdf4ed"] ;
513 -> 514 ;
515 [label="squared_error = 0.0\nsamples = 1\nvalue = 100000.0", fillcolor="#fdf3ed"] ;
513 -> 515 ;
516 [label="squared_error = 0.0\nsamples = 1\nvalue = 79000.0", fillcolor="#fdf7f3"] ;
512 -> 516 ;
517 [label="LotConfig_Corner <= 0.5\nsquared_error = 139136401.384\nsamples = 10\nvalue = 123335.294", fillcolor="#fcefe6"] ;
511 -> 517 ;
518 [label="Electrical_FuseF <= 0.5\nsquared_error = 63386100.0\nsamples = 7\nvalue = 130870.0", fillcolor="#fbeee4"] ;
517 -> 518 ;
519 [label="HalfBath <= 0.5\nsquared_error = 7541224.49\nsamples = 5\nvalue = 135814.286", fillcolor="#fbede3"] ;
518 -> 519 ;
520 [label="Exterior1st_Wd Sdng <= 0.5\nsquared_error = 2224722.222\nsamples = 4\nvalue = 136783.333", fillcolor="#fbede3"] ;
519 -> 520 ;
521 [label="GarageArea <= 328.0\nsquared_error = 186400.0\nsamples = 3\nvalue = 136140.0", fillcolor="#fbede3"] ;
520 -> 521 ;
522 [label="GarageCond <= 1.5\nsquared_error = 1875.0\nsamples = 2\nvalue = 135925.0", fillcolor="#fbede3"] ;
521 -> 522 ;
523 [label="squared_error = 0.0\nsamples = 1\nvalue = 135900.0", fillcolor="#fbede3"] ;
522 -> 523 ;
524 [label="squared_error = 0.0\nsamples = 1\nvalue = 136000.0", fillcolor="#fbede3"] ;
522 -> 524 ;
525 [label="squared_error = 0.0\nsamples = 1\nvalue = 137000.0", fillcolor="#fbede3"] ;
521 -> 525 ;
526 [label="squared_error = 0.0\nsamples = 1\nvalue = 140000.0", fillcolor="#fbece2"] ;
520 -> 526 ;
527 [label="squared_error = 0.0\nsamples = 1\nvalue = 130000.0", fillcolor="#fceee4"] ;
519 -> 527 ;
528 [label="MoSold <= 5.0\nsquared_error = 3555555.556\nsamples = 2\nvalue = 119333.333", fillcolor="#fcf0e7"] ;
518 -> 528 ;
529 [label="squared_error = 0.0\nsamples = 1\nvalue = 122000.0", fillcolor="#fcf0e7"] ;
528 -> 529 ;
530 [label="squared_error = 0.0\nsamples = 1\nvalue = 118000.0", fillcolor="#fcf0e8"] ;
528 -> 530 ;
531 [label="YrSold <= 2009.5\nsquared_error = 50387755.102\nsamples = 3\nvalue = 112571.429", fillcolor="#fcf1e9"] ;
517 -> 531 ;
532 [label="Exterior2nd_CmentBd <= 0.5\nsquared_error = 12500000.0\nsamples = 2\nvalue = 110000.0", fillcolor="#fcf2ea"] ;
531 -> 532 ;
533 [label="squared_error = 0.0\nsamples = 1\nvalue = 107500.0", fillcolor="#fcf2eb"] ;
532 -> 533 ;
534 [label="squared_error = 0.0\nsamples = 1\nvalue = 115000.0", fillcolor="#fcf1e9"] ;
532 -> 534 ;
535 [label="squared_error = 0.0\nsamples = 1\nvalue = 128000.0", fillcolor="#fceee5"] ;
531 -> 535 ;
536 [label="GrLivArea <= 1409.0\nsquared_error = 295571242.039\nsamples = 24\nvalue = 138422.773", fillcolor="#fbede2"] ;
510 -> 536 ;
537 [label="Exterior1st_Wd Sdng <= 0.5\nsquared_error = 3062500.0\nsamples = 2\nvalue = 91250.0", fillcolor="#fdf5ef"] ;
536 -> 537 ;
538 [label="squared_error = 0.0\nsamples = 1\nvalue = 89500.0", fillcolor="#fdf5f0"] ;
537 -> 538 ;
539 [label="squared_error = 0.0\nsamples = 1\nvalue = 93000.0", fillcolor="#fdf5ef"] ;
537 -> 539 ;
540 [label="Neighborhood_Edwards <= 0.5\nsquared_error = 198489003.658\nsamples = 22\nvalue = 140669.095", fillcolor="#fbece2"] ;
536 -> 540 ;
541 [label="LotFrontage <= 51.5\nsquared_error = 142926155.493\nsamples = 21\nvalue = 141868.341", fillcolor="#fbece1"] ;
540 -> 541 ;
542 [label="1stFlrSF <= 1431.0\nsquared_error = 170385763.889\nsamples = 7\nvalue = 133691.667", fillcolor="#fbede3"] ;
541 -> 542 ;
543 [label="2ndFlrSF <= 293.5\nsquared_error = 27166666.667\nsamples = 5\nvalue = 127500.0", fillcolor="#fcefe5"] ;
542 -> 543 ;
544 [label="squared_error = 0.0\nsamples = 1\nvalue = 115000.0", fillcolor="#fcf1e9"] ;
543 -> 544 ;
545 [label="Exterior2nd_MetalSd <= 0.5\nsquared_error = 8589843.75\nsamples = 4\nvalue = 129062.5", fillcolor="#fceee5"] ;
543 -> 545 ;
546 [label="LotConfig_Corner <= 0.5\nsquared_error = 2400000.0\nsamples = 3\nvalue = 127000.0", fillcolor="#fcefe5"] ;
545 -> 546 ;
547 [label="GarageArea <= 154.0\nsquared_error = 187500.0\nsamples = 2\nvalue = 127750.0", fillcolor="#fcefe5"] ;
546 -> 547 ;
548 [label="squared_error = 0.0\nsamples = 1\nvalue = 128000.0", fillcolor="#fceee5"] ;
547 -> 548 ;
549 [label="squared_error = 0.0\nsamples = 1\nvalue = 127000.0", fillcolor="#fcefe5"] ;
547 -> 549 ;
550 [label="squared_error = 0.0\nsamples = 1\nvalue = 124000.0", fillcolor="#fcefe6"] ;
546 -> 550 ;
551 [label="squared_error = 0.0\nsamples = 1\nvalue = 132500.0", fillcolor="#fbeee4"] ;
545 -> 551 ;
552 [label="1stFlrSF <= 1697.5\nsquared_error = 140002222.222\nsamples = 2\nvalue = 152266.667", fillcolor="#fbeade"] ;
542 -> 552 ;
553 [label="squared_error = 0.0\nsamples = 1\nvalue = 143900.0", fillcolor="#fbece1"] ;
552 -> 553 ;
554 [label="squared_error = 0.0\nsamples = 1\nvalue = 169000.0", fillcolor="#fae7da"] ;
552 -> 554 ;
555 [label="YearRemodAdd <= 1988.0\nsquared_error = 92450430.164\nsamples = 14\nvalue = 145251.793", fillcolor="#fbebe0"] ;
541 -> 555 ;
556 [label="Id <= 338.5\nsquared_error = 37421662.05\nsamples = 9\nvalue = 140421.053", fillcolor="#fbece2"] ;
555 -> 556 ;
557 [label="squared_error = 0.0\nsamples = 1\nvalue = 119000.0", fillcolor="#fcf0e8"] ;
556 -> 557 ;
558 [label="TotalBsmtSF <= 1041.0\nsquared_error = 12592098.765\nsamples = 8\nvalue = 141611.111", fillcolor="#fbece1"] ;
556 -> 558 ;
559 [label="HeatingQC <= 4.5\nsquared_error = 2007555.556\nsamples = 7\nvalue = 140133.333", fillcolor="#fbece2"] ;
558 -> 559 ;
560 [label="YrSold <= 2008.5\nsquared_error = 265917.16\nsamples = 5\nvalue = 139615.385", fillcolor="#fbece2"] ;
559 -> 560 ;
561 [label="YrSold <= 2006.5\nsquared_error = 13469.388\nsamples = 3\nvalue = 140071.429", fillcolor="#fbece2"] ;
560 -> 561 ;
562 [label="squared_error = 0.0\nsamples = 1\nvalue = 140200.0", fillcolor="#fbece2"] ;
561 -> 562 ;
563 [label="2ndFlrSF <= 290.0\nsquared_error = 1875.0\nsamples = 2\nvalue = 139975.0", fillcolor="#fbece2"] ;
561 -> 563 ;
564 [label="squared_error = 0.0\nsamples = 1\nvalue = 139900.0", fillcolor="#fbece2"] ;
563 -> 564 ;
565 [label="squared_error = 0.0\nsamples = 1\nvalue = 140000.0", fillcolor="#fbece2"] ;
563 -> 565 ;
566 [label="Exterior1st_MetalSd <= 0.5\nsquared_error = 34722.222\nsamples = 2\nvalue = 139083.333", fillcolor="#fbede2"] ;
560 -> 566 ;
567 [label="squared_error = 0.0\nsamples = 1\nvalue = 139500.0", fillcolor="#fbece2"] ;
566 -> 567 ;
568 [label="squared_error = 0.0\nsamples = 1\nvalue = 139000.0", fillcolor="#fbede2"] ;
566 -> 568 ;
569 [label="LandContour_Lvl <= 0.5\nsquared_error = 250000.0\nsamples = 2\nvalue = 143500.0", fillcolor="#fbece1"] ;
559 -> 569 ;
570 [label="squared_error = 0.0\nsamples = 1\nvalue = 144000.0", fillcolor="#fbece1"] ;
569 -> 570 ;
571 [label="squared_error = 0.0\nsamples = 1\nvalue = 143000.0", fillcolor="#fbece1"] ;
569 -> 571 ;
572 [label="squared_error = 0.0\nsamples = 1\nvalue = 149000.0", fillcolor="#fbebdf"] ;
558 -> 572 ;
573 [label="EnclosedPorch <= 84.0\nsquared_error = 68423434.76\nsamples = 5\nvalue = 154430.2", fillcolor="#fbeade"] ;
555 -> 573 ;
574 [label="Fireplaces <= 0.5\nsquared_error = 929644.556\nsamples = 3\nvalue = 160383.667", fillcolor="#fae9dc"] ;
573 -> 574 ;
575 [label="squared_error = 0.0\nsamples = 1\nvalue = 159434.0", fillcolor="#fae9dc"] ;
574 -> 575 ;
576 [label="GrLivArea <= 1727.0\nsquared_error = 55555.556\nsamples = 2\nvalue = 161333.333", fillcolor="#fae9dc"] ;
574 -> 576 ;
577 [label="squared_error = 0.0\nsamples = 1\nvalue = 161000.0", fillcolor="#fae9dc"] ;
576 -> 577 ;
578 [label="squared_error = 0.0\nsamples = 1\nvalue = 161500.0", fillcolor="#fae9dc"] ;
576 -> 578 ;
579 [label="BsmtQual <= 3.5\nsquared_error = 36750000.0\nsamples = 2\nvalue = 145500.0", fillcolor="#fbebe0"] ;
573 -> 579 ;
580 [label="squared_error = 0.0\nsamples = 1\nvalue = 135000.0", fillcolor="#fbede3"] ;
579 -> 580 ;
581 [label="squared_error = 0.0\nsamples = 1\nvalue = 149000.0", fillcolor="#fbebdf"] ;
579 -> 581 ;
582 [label="squared_error = 0.0\nsamples = 1\nvalue = 91500.0", fillcolor="#fdf5ef"] ;
540 -> 582 ;
583 [label="RoofStyle_Gambrel <= 0.5\nsquared_error = 1123088200.184\nsamples = 22\nvalue = 167474.242", fillcolor="#fae7da"] ;
509 -> 583 ;
584 [label="LotArea <= 10848.0\nsquared_error = 613925478.668\nsamples = 21\nvalue = 161537.097", fillcolor="#fae9dc"] ;
583 -> 584 ;
585 [label="TotalBsmtSF <= 835.0\nsquared_error = 244363129.252\nsamples = 13\nvalue = 149485.714", fillcolor="#fbebdf"] ;
584 -> 585 ;
586 [label="GarageYrBlt <= 1941.5\nsquared_error = 49372500.0\nsamples = 4\nvalue = 138950.0", fillcolor="#fbede2"] ;
585 -> 586 ;
587 [label="BsmtFinType2 <= 2.0\nsquared_error = 30250000.0\nsamples = 2\nvalue = 127500.0", fillcolor="#fcefe5"] ;
586 -> 587 ;
588 [label="squared_error = 0.0\nsamples = 1\nvalue = 122000.0", fillcolor="#fcf0e7"] ;
587 -> 588 ;
589 [label="squared_error = 0.0\nsamples = 1\nvalue = 133000.0", fillcolor="#fbeee4"] ;
587 -> 589 ;
590 [label="MSSubClass_70 <= 0.5\nsquared_error = 13183593.75\nsamples = 2\nvalue = 141812.5", fillcolor="#fbece1"] ;
586 -> 590 ;
591 [label="squared_error = 0.0\nsamples = 1\nvalue = 139000.0", fillcolor="#fbede2"] ;
590 -> 591 ;
592 [label="squared_error = 0.0\nsamples = 1\nvalue = 146500.0", fillcolor="#fbebe0"] ;
590 -> 592 ;
593 [label="Functional <= 6.0\nsquared_error = 228980495.868\nsamples = 9\nvalue = 159063.636", fillcolor="#fae9dc"] ;
585 -> 593 ;
594 [label="squared_error = 0.0\nsamples = 1\nvalue = 127000.0", fillcolor="#fcefe5"] ;
593 -> 594 ;
595 [label="Neighborhood_Edwards <= 0.5\nsquared_error = 138790100.0\nsamples = 8\nvalue = 162270.0", fillcolor="#fae8db"] ;
593 -> 595 ;
596 [label="PavedDrive <= 1.0\nsquared_error = 74749876.543\nsamples = 7\nvalue = 165088.889", fillcolor="#fae8db"] ;
595 -> 596 ;
597 [label="squared_error = 0.0\nsamples = 1\nvalue = 184000.0", fillcolor="#fae5d5"] ;
596 -> 597 ;
598 [label="HouseStyle_1Story <= 0.5\nsquared_error = 33801875.0\nsamples = 6\nvalue = 162725.0", fillcolor="#fae8db"] ;
596 -> 598 ;
599 [label="GrLivArea <= 1736.5\nsquared_error = 5160000.0\nsamples = 4\nvalue = 166800.0", fillcolor="#fae8da"] ;
598 -> 599 ;
600 [label="TotalBsmtSF <= 955.0\nsquared_error = 500000.0\nsamples = 2\nvalue = 165000.0", fillcolor="#fae8db"] ;
599 -> 600 ;
601 [label="squared_error = 0.0\nsamples = 1\nvalue = 164000.0", fillcolor="#fae8db"] ;
600 -> 601 ;
602 [label="squared_error = 0.0\nsamples = 1\nvalue = 165500.0", fillcolor="#fae8db"] ;
600 -> 602 ;
603 [label="squared_error = 0.0\nsamples = 2\nvalue = 169500.0", fillcolor="#fae7d9"] ;
599 -> 603 ;
604 [label="1stFlrSF <= 1295.5\nsquared_error = 7735555.556\nsamples = 2\nvalue = 155933.333", fillcolor="#fbeadd"] ;
598 -> 604 ;
605 [label="squared_error = 0.0\nsamples = 1\nvalue = 152000.0", fillcolor="#fbeade"] ;
604 -> 605 ;
606 [label="squared_error = 0.0\nsamples = 1\nvalue = 157900.0", fillcolor="#fae9dd"] ;
604 -> 606 ;
607 [label="squared_error = 0.0\nsamples = 1\nvalue = 136900.0", fillcolor="#fbede3"] ;
595 -> 607 ;
608 [label="BsmtQual <= 3.5\nsquared_error = 444521225.0\nsamples = 8\nvalue = 186845.0", fillcolor="#f9e4d5"] ;
584 -> 608 ;
609 [label="RoofStyle_Gable <= 0.5\nsquared_error = 102558400.0\nsamples = 4\nvalue = 204640.0", fillcolor="#f9e1d0"] ;
608 -> 609 ;
610 [label="LandSlope <= 1.5\nsquared_error = 31922500.0\nsamples = 2\nvalue = 194350.0", fillcolor="#f9e3d3"] ;
609 -> 610 ;
611 [label="squared_error = 0.0\nsamples = 1\nvalue = 200000.0", fillcolor="#f9e2d1"] ;
610 -> 611 ;
612 [label="squared_error = 0.0\nsamples = 1\nvalue = 188700.0", fillcolor="#f9e4d4"] ;
610 -> 612 ;
613 [label="GarageFinish <= 1.5\nsquared_error = 32000000.0\nsamples = 2\nvalue = 211500.0", fillcolor="#f9e0ce"] ;
609 -> 613 ;
614 [label="squared_error = 0.0\nsamples = 1\nvalue = 219500.0", fillcolor="#f8decc"] ;
613 -> 614 ;
615 [label="squared_error = 0.0\nsamples = 1\nvalue = 207500.0", fillcolor="#f9e0cf"] ;
613 -> 615 ;
616 [label="GarageArea <= 466.0\nsquared_error = 153160000.0\nsamples = 4\nvalue = 169050.0", fillcolor="#fae7da"] ;
608 -> 616 ;
617 [label="Condition1_Norm <= 0.5\nsquared_error = 4636718.75\nsamples = 3\nvalue = 162937.5", fillcolor="#fae8db"] ;
616 -> 617 ;
618 [label="squared_error = 0.0\nsamples = 1\nvalue = 165000.0", fillcolor="#fae8db"] ;
617 -> 618 ;
619 [label="EnclosedPorch <= 78.0\nsquared_error = 765625.0\nsamples = 2\nvalue = 160875.0", fillcolor="#fae9dc"] ;
617 -> 619 ;
620 [label="squared_error = 0.0\nsamples = 1\nvalue = 161750.0", fillcolor="#fae8dc"] ;
619 -> 620 ;
621 [label="squared_error = 0.0\nsamples = 1\nvalue = 160000.0", fillcolor="#fae9dc"] ;
619 -> 621 ;
622 [label="squared_error = 0.0\nsamples = 1\nvalue = 193500.0", fillcolor="#f9e3d3"] ;
616 -> 622 ;
623 [label="squared_error = 0.0\nsamples = 1\nvalue = 259500.0", fillcolor="#f7d7c0"] ;
583 -> 623 ;
624 [label="BsmtFinSF1 <= 1208.0\nsquared_error = 1102701750.954\nsamples = 128\nvalue = 177222.871", fillcolor="#fae6d7"] ;
508 -> 624 ;
625 [label="KitchenAbvGr <= 1.5\nsquared_error = 805966806.993\nsamples = 124\nvalue = 173910.207", fillcolor="#fae6d8"] ;
624 -> 625 ;
626 [label="GrLivArea <= 1633.5\nsquared_error = 658686209.638\nsamples = 111\nvalue = 178048.621", fillcolor="#fae6d7"] ;
625 -> 626 ;
627 [label="Exterior1st_Wd Sdng <= 0.5\nsquared_error = 287805054.981\nsamples = 53\nvalue = 167785.256", fillcolor="#fae7da"] ;
626 -> 627 ;
628 [label="GarageType_Detchd <= 0.5\nsquared_error = 167571360.338\nsamples = 46\nvalue = 170697.873", fillcolor="#fae7d9"] ;
627 -> 628 ;
629 [label="BsmtFinType1 <= 4.5\nsquared_error = 141176534.684\nsamples = 41\nvalue = 172871.478", fillcolor="#fae7d9"] ;
628 -> 629 ;
630 [label="BsmtFinType1 <= 2.0\nsquared_error = 94149580.583\nsamples = 24\nvalue = 167973.951", fillcolor="#fae7da"] ;
629 -> 630 ;
631 [label="BsmtUnfSF <= 676.0\nsquared_error = 40413374.222\nsamples = 13\nvalue = 172734.667", fillcolor="#fae7d9"] ;
630 -> 631 ;
632 [label="KitchenQual <= 3.5\nsquared_error = 17552719.339\nsamples = 5\nvalue = 167657.455", fillcolor="#fae7da"] ;
631 -> 632 ;
633 [label="MasVnrType_nan <= 0.5\nsquared_error = 204081.633\nsamples = 2\nvalue = 170285.714", fillcolor="#fae7d9"] ;
632 -> 633 ;
634 [label="squared_error = 0.0\nsamples = 1\nvalue = 171000.0", fillcolor="#fae7d9"] ;
633 -> 634 ;
635 [label="squared_error = 0.0\nsamples = 1\nvalue = 170000.0", fillcolor="#fae7d9"] ;
633 -> 635 ;
636 [label="FireplaceQu <= 3.5\nsquared_error = 14669292.0\nsamples = 3\nvalue = 163058.0", fillcolor="#fae8db"] ;
632 -> 636 ;
637 [label="MasVnrType_nan <= 0.5\nsquared_error = 2880000.0\nsamples = 2\nvalue = 165100.0", fillcolor="#fae8db"] ;
636 -> 637 ;
638 [label="squared_error = 0.0\nsamples = 1\nvalue = 163900.0", fillcolor="#fae8db"] ;
637 -> 638 ;
639 [label="squared_error = 0.0\nsamples = 1\nvalue = 167500.0", fillcolor="#fae7da"] ;
637 -> 639 ;
640 [label="squared_error = 0.0\nsamples = 1\nvalue = 156932.0", fillcolor="#fbe9dd"] ;
636 -> 640 ;
641 [label="YearBuilt <= 1991.0\nsquared_error = 19488284.024\nsamples = 8\nvalue = 177030.769", fillcolor="#fae6d7"] ;
631 -> 641 ;
642 [label="WoodDeckSF <= 185.5\nsquared_error = 4500000.0\nsamples = 2\nvalue = 183500.0", fillcolor="#fae5d6"] ;
641 -> 642 ;
643 [label="squared_error = 0.0\nsamples = 1\nvalue = 180500.0", fillcolor="#fae5d6"] ;
642 -> 643 ;
644 [label="squared_error = 0.0\nsamples = 1\nvalue = 185000.0", fillcolor="#fae4d5"] ;
642 -> 644 ;
645 [label="LotArea <= 10000.0\nsquared_error = 7662900.0\nsamples = 6\nvalue = 175090.0", fillcolor="#fae6d8"] ;
641 -> 645 ;
646 [label="TotRmsAbvGrd <= 6.5\nsquared_error = 2308395.062\nsamples = 5\nvalue = 175877.778", fillcolor="#fae6d8"] ;
645 -> 646 ;
647 [label="Exterior1st_HdBoard <= 0.5\nsquared_error = 2222.222\nsamples = 2\nvalue = 173966.667", fillcolor="#fae6d8"] ;
646 -> 647 ;
648 [label="squared_error = 0.0\nsamples = 1\nvalue = 173900.0", fillcolor="#fae6d8"] ;
647 -> 648 ;
649 [label="squared_error = 0.0\nsamples = 1\nvalue = 174000.0", fillcolor="#fae6d8"] ;
647 -> 649 ;
650 [label="YearBuilt <= 1995.0\nsquared_error = 722222.222\nsamples = 3\nvalue = 176833.333", fillcolor="#fae6d7"] ;
646 -> 650 ;
651 [label="squared_error = 0.0\nsamples = 1\nvalue = 178000.0", fillcolor="#fae6d7"] ;
650 -> 651 ;
652 [label="YearRemodAdd <= 2001.5\nsquared_error = 62500.0\nsamples = 2\nvalue = 176250.0", fillcolor="#fae6d8"] ;
650 -> 652 ;
653 [label="squared_error = 0.0\nsamples = 1\nvalue = 176500.0", fillcolor="#fae6d8"] ;
652 -> 653 ;
654 [label="squared_error = 0.0\nsamples = 1\nvalue = 176000.0", fillcolor="#fae6d8"] ;
652 -> 654 ;
655 [label="squared_error = 0.0\nsamples = 1\nvalue = 168000.0", fillcolor="#fae7da"] ;
645 -> 655 ;
656 [label="GarageArea <= 552.0\nsquared_error = 92843667.82\nsamples = 11\nvalue = 161252.941", fillcolor="#fae9dc"] ;
630 -> 656 ;
657 [label="LotShape <= 3.5\nsquared_error = 28477955.556\nsamples = 9\nvalue = 158273.333", fillcolor="#fae9dd"] ;
656 -> 657 ;
658 [label="HeatingQC <= 4.5\nsquared_error = 15789722.222\nsamples = 6\nvalue = 160183.333", fillcolor="#fae9dc"] ;
657 -> 658 ;
659 [label="YearRemodAdd <= 1960.0\nsquared_error = 6940826.446\nsamples = 5\nvalue = 161109.091", fillcolor="#fae9dc"] ;
658 -> 659 ;
660 [label="squared_error = 0.0\nsamples = 1\nvalue = 166000.0", fillcolor="#fae8da"] ;
659 -> 660 ;
661 [label="BsmtCond <= 3.5\nsquared_error = 1986172.84\nsamples = 4\nvalue = 160022.222", fillcolor="#fae9dc"] ;
659 -> 661 ;
662 [label="LotFrontage <= 72.5\nsquared_error = 45555.556\nsamples = 3\nvalue = 159033.333", fillcolor="#fae9dc"] ;
661 -> 662 ;
663 [label="BsmtFinType1 <= 3.5\nsquared_error = 2400.0\nsamples = 2\nvalue = 158940.0", fillcolor="#fae9dc"] ;
662 -> 663 ;
664 [label="squared_error = 0.0\nsamples = 1\nvalue = 158900.0", fillcolor="#fae9dc"] ;
663 -> 664 ;
665 [label="squared_error = 0.0\nsamples = 1\nvalue = 159000.0", fillcolor="#fae9dc"] ;
663 -> 665 ;
666 [label="squared_error = 0.0\nsamples = 1\nvalue = 159500.0", fillcolor="#fae9dc"] ;
662 -> 666 ;
667 [label="squared_error = 0.0\nsamples = 1\nvalue = 162000.0", fillcolor="#fae8dc"] ;
661 -> 667 ;
668 [label="squared_error = 0.0\nsamples = 1\nvalue = 150000.0", fillcolor="#fbebdf"] ;
658 -> 668 ;
669 [label="Exterior2nd_MetalSd <= 0.5\nsquared_error = 6268888.889\nsamples = 3\nvalue = 150633.333", fillcolor="#fbeadf"] ;
657 -> 669 ;
670 [label="MoSold <= 10.5\nsquared_error = 902500.0\nsamples = 2\nvalue = 148950.0", fillcolor="#fbebdf"] ;
669 -> 670 ;
671 [label="squared_error = 0.0\nsamples = 1\nvalue = 148000.0", fillcolor="#fbebdf"] ;
670 -> 671 ;
672 [label="squared_error = 0.0\nsamples = 1\nvalue = 149900.0", fillcolor="#fbebdf"] ;
670 -> 672 ;
673 [label="squared_error = 0.0\nsamples = 1\nvalue = 154000.0", fillcolor="#fbeade"] ;
669 -> 673 ;
674 [label="Fireplaces <= 1.5\nsquared_error = 9610000.0\nsamples = 2\nvalue = 183600.0", fillcolor="#fae5d6"] ;
656 -> 674 ;
675 [label="squared_error = 0.0\nsamples = 1\nvalue = 180500.0", fillcolor="#fae5d6"] ;
674 -> 675 ;
676 [label="squared_error = 0.0\nsamples = 1\nvalue = 186700.0", fillcolor="#f9e4d5"] ;
674 -> 676 ;
677 [label="YearRemodAdd <= 2000.0\nsquared_error = 123486734.694\nsamples = 17\nvalue = 180042.857", fillcolor="#fae5d7"] ;
629 -> 677 ;
678 [label="LotArea <= 6020.0\nsquared_error = 89579616.0\nsamples = 14\nvalue = 177828.0", fillcolor="#fae6d7"] ;
677 -> 678 ;
679 [label="squared_error = 0.0\nsamples = 1\nvalue = 148500.0", fillcolor="#fbebdf"] ;
678 -> 679 ;
680 [label="GrLivArea <= 1587.5\nsquared_error = 55980000.0\nsamples = 13\nvalue = 179050.0", fillcolor="#fae5d7"] ;
678 -> 680 ;
681 [label="OpenPorchSF <= 41.0\nsquared_error = 31040599.174\nsamples = 11\nvalue = 180559.091", fillcolor="#fae5d6"] ;
680 -> 681 ;
682 [label="SaleCondition_Abnorml <= 0.5\nsquared_error = 8840000.0\nsamples = 5\nvalue = 176100.0", fillcolor="#fae6d8"] ;
681 -> 682 ;
683 [label="LotArea <= 11050.0\nsquared_error = 3316326.531\nsamples = 4\nvalue = 174428.571", fillcolor="#fae6d8"] ;
682 -> 683 ;
684 [label="squared_error = 0.0\nsamples = 1\nvalue = 170000.0", fillcolor="#fae7d9"] ;
683 -> 684 ;
685 [label="LotFrontage <= 74.0\nsquared_error = 55555.556\nsamples = 3\nvalue = 175166.667", fillcolor="#fae6d8"] ;
683 -> 685 ;
686 [label="squared_error = 0.0\nsamples = 2\nvalue = 175000.0", fillcolor="#fae6d8"] ;
685 -> 686 ;
687 [label="squared_error = 0.0\nsamples = 1\nvalue = 175500.0", fillcolor="#fae6d8"] ;
685 -> 687 ;
688 [label="squared_error = 0.0\nsamples = 1\nvalue = 180000.0", fillcolor="#fae5d7"] ;
682 -> 688 ;
689 [label="WoodDeckSF <= 47.5\nsquared_error = 19163541.667\nsamples = 6\nvalue = 184275.0", fillcolor="#fae4d5"] ;
681 -> 689 ;
690 [label="GrLivArea <= 1443.0\nsquared_error = 2102500.0\nsamples = 2\nvalue = 178450.0", fillcolor="#fae6d7"] ;
689 -> 690 ;
691 [label="squared_error = 0.0\nsamples = 1\nvalue = 179900.0", fillcolor="#fae5d7"] ;
690 -> 691 ;
692 [label="squared_error = 0.0\nsamples = 1\nvalue = 177000.0", fillcolor="#fae6d7"] ;
690 -> 692 ;
693 [label="LotArea <= 12119.0\nsquared_error = 2246093.75\nsamples = 4\nvalue = 187187.5", fillcolor="#f9e4d5"] ;
689 -> 693 ;
694 [label="squared_error = 0.0\nsamples = 1\nvalue = 185000.0", fillcolor="#fae4d5"] ;
693 -> 694 ;
695 [label="GarageYrBlt <= 1978.0\nsquared_error = 868055.556\nsamples = 3\nvalue = 187916.667", fillcolor="#f9e4d4"] ;
693 -> 695 ;
696 [label="squared_error = 0.0\nsamples = 1\nvalue = 190000.0", fillcolor="#f9e3d4"] ;
695 -> 696 ;
697 [label="squared_error = 0.0\nsamples = 2\nvalue = 187500.0", fillcolor="#f9e4d4"] ;
695 -> 697 ;
698 [label="LotShape <= 3.5\nsquared_error = 29702500.0\nsamples = 2\nvalue = 162450.0", fillcolor="#fae8db"] ;
680 -> 698 ;
699 [label="squared_error = 0.0\nsamples = 1\nvalue = 157000.0", fillcolor="#fbe9dd"] ;
698 -> 699 ;
700 [label="squared_error = 0.0\nsamples = 1\nvalue = 167900.0", fillcolor="#fae7da"] ;
698 -> 700 ;
701 [label="MasVnrArea <= 14.0\nsquared_error = 24500000.0\nsamples = 3\nvalue = 198500.0", fillcolor="#f9e2d1"] ;
677 -> 701 ;
702 [label="LotFrontage <= 70.0\nsquared_error = 5062500.0\nsamples = 2\nvalue = 195250.0", fillcolor="#f9e3d2"] ;
701 -> 702 ;
703 [label="squared_error = 0.0\nsamples = 1\nvalue = 193000.0", fillcolor="#f9e3d3"] ;
702 -> 703 ;
704 [label="squared_error = 0.0\nsamples = 1\nvalue = 197500.0", fillcolor="#f9e2d2"] ;
702 -> 704 ;
705 [label="squared_error = 0.0\nsamples = 1\nvalue = 205000.0", fillcolor="#f9e1d0"] ;
701 -> 705 ;
706 [label="Condition1_Norm <= 0.5\nsquared_error = 92160000.0\nsamples = 5\nvalue = 155700.0", fillcolor="#fbeadd"] ;
628 -> 706 ;
707 [label="squared_error = 0.0\nsamples = 1\nvalue = 143000.0", fillcolor="#fbece1"] ;
706 -> 707 ;
708 [label="FullBath <= 1.5\nsquared_error = 32908163.265\nsamples = 4\nvalue = 161142.857", fillcolor="#fae9dc"] ;
706 -> 708 ;
709 [label="BsmtUnfSF <= 524.5\nsquared_error = 222222.222\nsamples = 2\nvalue = 167666.667", fillcolor="#fae7da"] ;
708 -> 709 ;
710 [label="squared_error = 0.0\nsamples = 1\nvalue = 168000.0", fillcolor="#fae7da"] ;
709 -> 710 ;
711 [label="squared_error = 0.0\nsamples = 1\nvalue = 167000.0", fillcolor="#fae8da"] ;
709 -> 711 ;
712 [label="MSZoning_RL <= 0.5\nsquared_error = 1562500.0\nsamples = 2\nvalue = 156250.0", fillcolor="#fbe9dd"] ;
708 -> 712 ;
713 [label="squared_error = 0.0\nsamples = 1\nvalue = 157500.0", fillcolor="#fbe9dd"] ;
712 -> 713 ;
714 [label="squared_error = 0.0\nsamples = 1\nvalue = 155000.0", fillcolor="#fbeade"] ;
712 -> 714 ;
715 [label="MoSold <= 6.5\nsquared_error = 468486938.776\nsamples = 7\nvalue = 134914.286", fillcolor="#fbede3"] ;
627 -> 715 ;
716 [label="LotArea <= 10200.0\nsquared_error = 183042500.0\nsamples = 4\nvalue = 151350.0", fillcolor="#fbeadf"] ;
715 -> 716 ;
717 [label="squared_error = 0.0\nsamples = 1\nvalue = 132000.0", fillcolor="#fbeee4"] ;
716 -> 717 ;
718 [label="FullBath <= 1.5\nsquared_error = 77646666.667\nsamples = 3\nvalue = 157800.0", fillcolor="#fbe9dd"] ;
716 -> 718 ;
719 [label="FireplaceQu <= 3.5\nsquared_error = 4840000.0\nsamples = 2\nvalue = 151700.0", fillcolor="#fbeade"] ;
718 -> 719 ;
720 [label="squared_error = 0.0\nsamples = 1\nvalue = 149500.0", fillcolor="#fbebdf"] ;
719 -> 720 ;
721 [label="squared_error = 0.0\nsamples = 1\nvalue = 153900.0", fillcolor="#fbeade"] ;
719 -> 721 ;
722 [label="squared_error = 0.0\nsamples = 1\nvalue = 170000.0", fillcolor="#fae7d9"] ;
718 -> 722 ;
723 [label="GarageArea <= 618.0\nsquared_error = 8666666.667\nsamples = 3\nvalue = 113000.0", fillcolor="#fcf1e9"] ;
715 -> 723 ;
724 [label="BedroomAbvGr <= 2.5\nsquared_error = 1000000.0\nsamples = 2\nvalue = 111000.0", fillcolor="#fcf1ea"] ;
723 -> 724 ;
725 [label="squared_error = 0.0\nsamples = 1\nvalue = 110000.0", fillcolor="#fcf2ea"] ;
724 -> 725 ;
726 [label="squared_error = 0.0\nsamples = 1\nvalue = 112000.0", fillcolor="#fcf1ea"] ;
724 -> 726 ;
727 [label="squared_error = 0.0\nsamples = 1\nvalue = 117000.0", fillcolor="#fcf0e8"] ;
723 -> 727 ;
728 [label="YearRemodAdd <= 1979.5\nsquared_error = 817592565.471\nsamples = 58\nvalue = 188078.727", fillcolor="#f9e4d4"] ;
626 -> 728 ;
729 [label="LotFrontage <= 75.5\nsquared_error = 775267995.241\nsamples = 28\nvalue = 172842.683", fillcolor="#fae7d9"] ;
728 -> 729 ;
730 [label="2ndFlrSF <= 913.5\nsquared_error = 630606447.188\nsamples = 18\nvalue = 163014.815", fillcolor="#fae8db"] ;
729 -> 730 ;
731 [label="TotalBsmtSF <= 782.0\nsquared_error = 401196897.507\nsamples = 14\nvalue = 173131.579", fillcolor="#fae6d8"] ;
730 -> 731 ;
732 [label="GarageArea <= 501.5\nsquared_error = 194486938.776\nsamples = 6\nvalue = 153585.714", fillcolor="#fbeade"] ;
731 -> 732 ;
733 [label="Foundation_Slab <= 0.5\nsquared_error = 35555.556\nsamples = 2\nvalue = 139866.667", fillcolor="#fbece2"] ;
732 -> 733 ;
734 [label="squared_error = 0.0\nsamples = 1\nvalue = 140000.0", fillcolor="#fbece2"] ;
733 -> 734 ;
735 [label="squared_error = 0.0\nsamples = 1\nvalue = 139600.0", fillcolor="#fbece2"] ;
733 -> 735 ;
736 [label="Electrical_SBrkr <= 0.5\nsquared_error = 93296875.0\nsamples = 4\nvalue = 163875.0", fillcolor="#fae8db"] ;
732 -> 736 ;
737 [label="squared_error = 0.0\nsamples = 1\nvalue = 180500.0", fillcolor="#fae5d6"] ;
736 -> 737 ;
738 [label="BsmtFinType2 <= 2.0\nsquared_error = 1555555.556\nsamples = 3\nvalue = 158333.333", fillcolor="#fae9dd"] ;
736 -> 738 ;
739 [label="BedroomAbvGr <= 3.5\nsquared_error = 250000.0\nsamples = 2\nvalue = 157500.0", fillcolor="#fbe9dd"] ;
738 -> 739 ;
740 [label="squared_error = 0.0\nsamples = 1\nvalue = 158000.0", fillcolor="#fae9dd"] ;
739 -> 740 ;
741 [label="squared_error = 0.0\nsamples = 1\nvalue = 157000.0", fillcolor="#fbe9dd"] ;
739 -> 741 ;
742 [label="squared_error = 0.0\nsamples = 1\nvalue = 160000.0", fillcolor="#fae9dc"] ;
738 -> 742 ;
743 [label="YrSold <= 2007.5\nsquared_error = 168920555.556\nsamples = 8\nvalue = 184533.333", fillcolor="#fae4d5"] ;
731 -> 743 ;
744 [label="Foundation_BrkTil <= 0.5\nsquared_error = 45501388.889\nsamples = 4\nvalue = 196316.667", fillcolor="#f9e2d2"] ;
743 -> 744 ;
745 [label="FireplaceQu <= 3.5\nsquared_error = 9665600.0\nsamples = 3\nvalue = 193580.0", fillcolor="#f9e3d3"] ;
744 -> 745 ;
746 [label="1stFlrSF <= 1130.0\nsquared_error = 1868888.889\nsamples = 2\nvalue = 195966.667", fillcolor="#f9e2d2"] ;
745 -> 746 ;
747 [label="squared_error = 0.0\nsamples = 1\nvalue = 195000.0", fillcolor="#f9e3d2"] ;
746 -> 747 ;
748 [label="squared_error = 0.0\nsamples = 1\nvalue = 197900.0", fillcolor="#f9e2d2"] ;
746 -> 748 ;
749 [label="squared_error = 0.0\nsamples = 1\nvalue = 190000.0", fillcolor="#f9e3d4"] ;
745 -> 749 ;
750 [label="squared_error = 0.0\nsamples = 1\nvalue = 210000.0", fillcolor="#f9e0ce"] ;
744 -> 750 ;
751 [label="Exterior2nd_MetalSd <= 0.5\nsquared_error = 14645833.333\nsamples = 4\nvalue = 172750.0", fillcolor="#fae7d9"] ;
743 -> 751 ;
752 [label="OpenPorchSF <= 61.0\nsquared_error = 8166666.667\nsamples = 3\nvalue = 169500.0", fillcolor="#fae7d9"] ;
751 -> 752 ;
753 [label="squared_error = 0.0\nsamples = 1\nvalue = 165500.0", fillcolor="#fae8db"] ;
752 -> 753 ;
754 [label="BsmtFinType2 <= 1.5\nsquared_error = 250000.0\nsamples = 2\nvalue = 171500.0", fillcolor="#fae7d9"] ;
752 -> 754 ;
755 [label="squared_error = 0.0\nsamples = 1\nvalue = 171000.0", fillcolor="#fae7d9"] ;
754 -> 755 ;
756 [label="squared_error = 0.0\nsamples = 1\nvalue = 172000.0", fillcolor="#fae7d9"] ;
754 -> 756 ;
757 [label="squared_error = 0.0\nsamples = 1\nvalue = 176000.0", fillcolor="#fae6d8"] ;
751 -> 757 ;
758 [label="LotShape <= 2.5\nsquared_error = 355063593.75\nsamples = 4\nvalue = 138987.5", fillcolor="#fbede2"] ;
730 -> 758 ;
759 [label="squared_error = 0.0\nsamples = 1\nvalue = 185000.0", fillcolor="#fae4d5"] ;
758 -> 759 ;
760 [label="GrLivArea <= 2450.5\nsquared_error = 60129795.918\nsamples = 3\nvalue = 132414.286", fillcolor="#fbeee4"] ;
758 -> 760 ;
761 [label="RoofStyle_Flat <= 0.5\nsquared_error = 62500.0\nsamples = 2\nvalue = 129250.0", fillcolor="#fceee5"] ;
760 -> 761 ;
762 [label="squared_error = 0.0\nsamples = 1\nvalue = 129500.0", fillcolor="#fceee5"] ;
761 -> 762 ;
763 [label="squared_error = 0.0\nsamples = 1\nvalue = 129000.0", fillcolor="#fceee5"] ;
761 -> 763 ;
764 [label="squared_error = 0.0\nsamples = 1\nvalue = 151400.0", fillcolor="#fbeadf"] ;
760 -> 764 ;
765 [label="BsmtFinSF1 <= 310.5\nsquared_error = 508738737.245\nsamples = 10\nvalue = 191796.429", fillcolor="#f9e3d3"] ;
729 -> 765 ;
766 [label="GarageYrBlt <= 1974.5\nsquared_error = 55304795.918\nsamples = 4\nvalue = 172735.714", fillcolor="#fae7d9"] ;
765 -> 766 ;
767 [label="HalfBath <= 1.5\nsquared_error = 6567013.889\nsamples = 3\nvalue = 169858.333", fillcolor="#fae7d9"] ;
766 -> 767 ;
768 [label="Neighborhood_Sawyer <= 0.5\nsquared_error = 2560000.0\nsamples = 2\nvalue = 170800.0", fillcolor="#fae7d9"] ;
767 -> 768 ;
769 [label="squared_error = 0.0\nsamples = 1\nvalue = 174000.0", fillcolor="#fae6d8"] ;
768 -> 769 ;
770 [label="squared_error = 0.0\nsamples = 1\nvalue = 170000.0", fillcolor="#fae7d9"] ;
768 -> 770 ;
771 [label="squared_error = 0.0\nsamples = 1\nvalue = 165150.0", fillcolor="#fae8db"] ;
767 -> 771 ;
772 [label="squared_error = 0.0\nsamples = 1\nvalue = 190000.0", fillcolor="#f9e3d4"] ;
766 -> 772 ;
773 [label="TotalBsmtSF <= 874.0\nsquared_error = 235551020.408\nsamples = 6\nvalue = 210857.143", fillcolor="#f9e0ce"] ;
765 -> 773 ;
774 [label="GarageArea <= 516.5\nsquared_error = 12000000.0\nsamples = 3\nvalue = 199000.0", fillcolor="#f9e2d1"] ;
773 -> 774 ;
775 [label="squared_error = 0.0\nsamples = 1\nvalue = 205000.0", fillcolor="#f9e1d0"] ;
774 -> 775 ;
776 [label="squared_error = 0.0\nsamples = 2\nvalue = 197000.0", fillcolor="#f9e2d2"] ;
774 -> 776 ;
777 [label="Exterior2nd_Wd Sdng <= 0.5\nsquared_error = 96222222.222\nsamples = 3\nvalue = 226666.667", fillcolor="#f8ddca"] ;
773 -> 777 ;
778 [label="GarageArea <= 507.5\nsquared_error = 30250000.0\nsamples = 2\nvalue = 220500.0", fillcolor="#f8decb"] ;
777 -> 778 ;
779 [label="squared_error = 0.0\nsamples = 1\nvalue = 226000.0", fillcolor="#f8ddca"] ;
778 -> 779 ;
780 [label="squared_error = 0.0\nsamples = 1\nvalue = 215000.0", fillcolor="#f8dfcd"] ;
778 -> 780 ;
781 [label="squared_error = 0.0\nsamples = 1\nvalue = 239000.0", fillcolor="#f8dbc6"] ;
777 -> 781 ;
782 [label="BsmtFinSF1 <= 594.5\nsquared_error = 475360324.701\nsamples = 30\nvalue = 201369.745", fillcolor="#f9e1d1"] ;
728 -> 782 ;
783 [label="LotFrontage <= 49.5\nsquared_error = 260746630.859\nsamples = 20\nvalue = 192334.375", fillcolor="#f9e3d3"] ;
782 -> 783 ;
784 [label="GarageYrBlt <= 1992.0\nsquared_error = 18376875.0\nsamples = 2\nvalue = 222425.0", fillcolor="#f8decb"] ;
783 -> 784 ;
785 [label="squared_error = 0.0\nsamples = 1\nvalue = 215000.0", fillcolor="#f8dfcd"] ;
784 -> 785 ;
786 [label="squared_error = 0.0\nsamples = 1\nvalue = 224900.0", fillcolor="#f8ddca"] ;
784 -> 786 ;
787 [label="YrSold <= 2007.5\nsquared_error = 147543010.204\nsamples = 18\nvalue = 188035.714", fillcolor="#f9e4d4"] ;
783 -> 787 ;
788 [label="BsmtExposure <= 2.5\nsquared_error = 29644285.714\nsamples = 8\nvalue = 179600.0", fillcolor="#fae5d7"] ;
787 -> 788 ;
789 [label="TotRmsAbvGrd <= 7.5\nsquared_error = 8704400.0\nsamples = 6\nvalue = 176540.0", fillcolor="#fae6d8"] ;
788 -> 789 ;
790 [label="BsmtUnfSF <= 922.0\nsquared_error = 4391111.111\nsamples = 5\nvalue = 177266.667", fillcolor="#fae6d7"] ;
789 -> 790 ;
791 [label="GarageType_Attchd <= 0.5\nsquared_error = 489795.918\nsamples = 3\nvalue = 178285.714", fillcolor="#fae6d7"] ;
790 -> 791 ;
792 [label="squared_error = 0.0\nsamples = 2\nvalue = 178000.0", fillcolor="#fae6d7"] ;
791 -> 792 ;
793 [label="squared_error = 0.0\nsamples = 1\nvalue = 180000.0", fillcolor="#fae5d7"] ;
791 -> 793 ;
794 [label="2ndFlrSF <= 702.5\nsquared_error = 1690000.0\nsamples = 2\nvalue = 173700.0", fillcolor="#fae6d8"] ;
790 -> 794 ;
795 [label="squared_error = 0.0\nsamples = 1\nvalue = 175000.0", fillcolor="#fae6d8"] ;
794 -> 795 ;
796 [label="squared_error = 0.0\nsamples = 1\nvalue = 172400.0", fillcolor="#fae7d9"] ;
794 -> 796 ;
797 [label="squared_error = 0.0\nsamples = 1\nvalue = 170000.0", fillcolor="#fae7d9"] ;
789 -> 797 ;
798 [label="GarageYrBlt <= 1965.0\nsquared_error = 62500.0\nsamples = 2\nvalue = 187250.0", fillcolor="#f9e4d5"] ;
788 -> 798 ;
799 [label="squared_error = 0.0\nsamples = 1\nvalue = 187000.0", fillcolor="#f9e4d5"] ;
798 -> 799 ;
800 [label="squared_error = 0.0\nsamples = 1\nvalue = 187500.0", fillcolor="#f9e4d4"] ;
798 -> 800 ;
801 [label="LotArea <= 11707.0\nsquared_error = 123119183.673\nsamples = 10\nvalue = 196471.429", fillcolor="#f9e2d2"] ;
787 -> 801 ;
802 [label="TotalBsmtSF <= 958.0\nsquared_error = 23460000.0\nsamples = 7\nvalue = 190800.0", fillcolor="#f9e3d4"] ;
801 -> 802 ;
803 [label="MasVnrArea <= 20.0\nsquared_error = 3479591.837\nsamples = 5\nvalue = 187857.143", fillcolor="#f9e4d4"] ;
802 -> 803 ;
804 [label="TotRmsAbvGrd <= 9.5\nsquared_error = 1187500.0\nsamples = 3\nvalue = 189250.0", fillcolor="#f9e4d4"] ;
803 -> 804 ;
805 [label="Condition1_Norm <= 0.5\nsquared_error = 222222.222\nsamples = 2\nvalue = 188666.667", fillcolor="#f9e4d4"] ;
804 -> 805 ;
806 [label="squared_error = 0.0\nsamples = 1\nvalue = 189000.0", fillcolor="#f9e4d4"] ;
805 -> 806 ;
807 [label="squared_error = 0.0\nsamples = 1\nvalue = 188000.0", fillcolor="#f9e4d4"] ;
805 -> 807 ;
808 [label="squared_error = 0.0\nsamples = 1\nvalue = 191000.0", fillcolor="#f9e3d3"] ;
804 -> 808 ;
809 [label="TotRmsAbvGrd <= 7.5\nsquared_error = 500000.0\nsamples = 2\nvalue = 186000.0", fillcolor="#f9e4d5"] ;
803 -> 809 ;
810 [label="squared_error = 0.0\nsamples = 1\nvalue = 185000.0", fillcolor="#fae4d5"] ;
809 -> 810 ;
811 [label="squared_error = 0.0\nsamples = 1\nvalue = 186500.0", fillcolor="#f9e4d5"] ;
809 -> 811 ;
812 [label="Neighborhood_OldTown <= 0.5\nsquared_error = 2722222.222\nsamples = 2\nvalue = 197666.667", fillcolor="#f9e2d2"] ;
802 -> 812 ;
813 [label="squared_error = 0.0\nsamples = 1\nvalue = 196500.0", fillcolor="#f9e2d2"] ;
812 -> 813 ;
814 [label="squared_error = 0.0\nsamples = 1\nvalue = 200000.0", fillcolor="#f9e2d1"] ;
812 -> 814 ;
815 [label="LandContour_Lvl <= 0.5\nsquared_error = 90822500.0\nsamples = 3\nvalue = 210650.0", fillcolor="#f9e0ce"] ;
801 -> 815 ;
816 [label="Foundation_PConc <= 0.5\nsquared_error = 25000000.0\nsamples = 2\nvalue = 219500.0", fillcolor="#f8decc"] ;
815 -> 816 ;
817 [label="squared_error = 0.0\nsamples = 1\nvalue = 214500.0", fillcolor="#f8dfcd"] ;
816 -> 817 ;
818 [label="squared_error = 0.0\nsamples = 1\nvalue = 224500.0", fillcolor="#f8ddca"] ;
816 -> 818 ;
819 [label="squared_error = 0.0\nsamples = 1\nvalue = 201800.0", fillcolor="#f9e1d0"] ;
815 -> 819 ;
820 [label="YearBuilt <= 1977.0\nsquared_error = 387498829.227\nsamples = 10\nvalue = 220645.2", fillcolor="#f8decb"] ;
782 -> 820 ;
821 [label="BsmtFullBath <= 0.5\nsquared_error = 67687500.0\nsamples = 4\nvalue = 245250.0", fillcolor="#f7dac4"] ;
820 -> 821 ;
822 [label="MSSubClass_70 <= 0.5\nsquared_error = 6250000.0\nsamples = 2\nvalue = 237500.0", fillcolor="#f8dbc7"] ;
821 -> 822 ;
823 [label="squared_error = 0.0\nsamples = 1\nvalue = 240000.0", fillcolor="#f7dbc6"] ;
822 -> 823 ;
824 [label="squared_error = 0.0\nsamples = 1\nvalue = 235000.0", fillcolor="#f8dbc7"] ;
822 -> 824 ;
825 [label="TotRmsAbvGrd <= 7.5\nsquared_error = 9000000.0\nsamples = 2\nvalue = 253000.0", fillcolor="#f7d8c2"] ;
821 -> 825 ;
826 [label="squared_error = 0.0\nsamples = 1\nvalue = 256000.0", fillcolor="#f7d8c1"] ;
825 -> 826 ;
827 [label="squared_error = 0.0\nsamples = 1\nvalue = 250000.0", fillcolor="#f7d9c3"] ;
825 -> 827 ;
828 [label="SaleType_New <= 0.5\nsquared_error = 203597403.636\nsamples = 6\nvalue = 211698.0", fillcolor="#f9e0ce"] ;
820 -> 828 ;
829 [label="GarageArea <= 509.0\nsquared_error = 39227500.0\nsamples = 5\nvalue = 207600.0", fillcolor="#f9e0cf"] ;
828 -> 829 ;
830 [label="squared_error = 0.0\nsamples = 1\nvalue = 192000.0", fillcolor="#f9e3d3"] ;
829 -> 830 ;
831 [label="YearRemodAdd <= 1997.5\nsquared_error = 13541666.667\nsamples = 4\nvalue = 209333.333", fillcolor="#f9e0ce"] ;
829 -> 831 ;
832 [label="MSSubClass_60 <= 0.5\nsquared_error = 1815000.0\nsamples = 2\nvalue = 206400.0", fillcolor="#f9e1cf"] ;
831 -> 832 ;
833 [label="squared_error = 0.0\nsamples = 1\nvalue = 207500.0", fillcolor="#f9e0cf"] ;
832 -> 833 ;
834 [label="squared_error = 0.0\nsamples = 1\nvalue = 204750.0", fillcolor="#f9e1d0"] ;
832 -> 834 ;
835 [label="1stFlrSF <= 843.0\nsquared_error = 4000000.0\nsamples = 2\nvalue = 213000.0", fillcolor="#f8dfcd"] ;
831 -> 835 ;
836 [label="squared_error = 0.0\nsamples = 1\nvalue = 215000.0", fillcolor="#f8dfcd"] ;
835 -> 836 ;
837 [label="squared_error = 0.0\nsamples = 1\nvalue = 211000.0", fillcolor="#f9e0ce"] ;
835 -> 837 ;
838 [label="squared_error = 0.0\nsamples = 1\nvalue = 252678.0", fillcolor="#f7d8c2"] ;
828 -> 838 ;
839 [label="GrLivArea <= 2379.0\nsquared_error = 561558722.576\nsamples = 13\nvalue = 136011.053", fillcolor="#fbede3"] ;
625 -> 839 ;
840 [label="Exterior1st_AsbShng <= 0.5\nsquared_error = 244362708.478\nsamples = 12\nvalue = 129659.412", fillcolor="#fceee5"] ;
839 -> 840 ;
841 [label="OpenPorchSF <= 12.5\nsquared_error = 98757362.889\nsamples = 10\nvalue = 134080.667", fillcolor="#fbede3"] ;
840 -> 841 ;
842 [label="LotFrontage <= 72.0\nsquared_error = 31058564.0\nsamples = 7\nvalue = 139421.0", fillcolor="#fbece2"] ;
841 -> 842 ;
843 [label="MSSubClass_50 <= 0.5\nsquared_error = 12267506.25\nsamples = 2\nvalue = 133402.5", fillcolor="#fbeee4"] ;
842 -> 843 ;
844 [label="squared_error = 0.0\nsamples = 1\nvalue = 136905.0", fillcolor="#fbede3"] ;
843 -> 844 ;
845 [label="squared_error = 0.0\nsamples = 1\nvalue = 129900.0", fillcolor="#fceee5"] ;
843 -> 845 ;
846 [label="LandContour_HLS <= 0.5\nsquared_error = 3338888.889\nsamples = 5\nvalue = 143433.333", fillcolor="#fbece1"] ;
842 -> 846 ;
847 [label="Exterior1st_HdBoard <= 0.5\nsquared_error = 1768888.889\nsamples = 3\nvalue = 141866.667", fillcolor="#fbece1"] ;
846 -> 847 ;
848 [label="squared_error = 0.0\nsamples = 1\nvalue = 140000.0", fillcolor="#fbece2"] ;
847 -> 848 ;
849 [label="BsmtUnfSF <= 1564.5\nsquared_error = 40000.0\nsamples = 2\nvalue = 142800.0", fillcolor="#fbece1"] ;
847 -> 849 ;
850 [label="squared_error = 0.0\nsamples = 1\nvalue = 142600.0", fillcolor="#fbece1"] ;
849 -> 850 ;
851 [label="squared_error = 0.0\nsamples = 1\nvalue = 143000.0", fillcolor="#fbece1"] ;
849 -> 851 ;
852 [label="squared_error = 0.0\nsamples = 2\nvalue = 145000.0", fillcolor="#fbebe0"] ;
846 -> 852 ;
853 [label="1stFlrSF <= 1716.0\nsquared_error = 63040000.0\nsamples = 3\nvalue = 123400.0", fillcolor="#fcefe6"] ;
841 -> 853 ;
854 [label="Condition1_Norm <= 0.5\nsquared_error = 22687500.0\nsamples = 2\nvalue = 126750.0", fillcolor="#fcefe5"] ;
853 -> 854 ;
855 [label="squared_error = 0.0\nsamples = 1\nvalue = 135000.0", fillcolor="#fbede3"] ;
854 -> 855 ;
856 [label="squared_error = 0.0\nsamples = 1\nvalue = 124000.0", fillcolor="#fcefe6"] ;
854 -> 856 ;
857 [label="squared_error = 0.0\nsamples = 1\nvalue = 110000.0", fillcolor="#fcf2ea"] ;
853 -> 857 ;
858 [label="HouseStyle_2.5Unf <= 0.5\nsquared_error = 90250000.0\nsamples = 2\nvalue = 96500.0", fillcolor="#fdf4ee"] ;
840 -> 858 ;
859 [label="squared_error = 0.0\nsamples = 1\nvalue = 87000.0", fillcolor="#fdf6f0"] ;
858 -> 859 ;
860 [label="squared_error = 0.0\nsamples = 1\nvalue = 106000.0", fillcolor="#fcf2eb"] ;
858 -> 860 ;
861 [label="squared_error = 0.0\nsamples = 1\nvalue = 190000.0", fillcolor="#f9e3d4"] ;
839 -> 861 ;
